{"learner":{"attributes":{"scikit_learn":"{\"_estimator_type\": \"classifier\"}"},"feature_names":[],"feature_types":[],"gradient_booster":{"model":{"gbtree_model_param":{"num_parallel_tree":"1","num_trees":"400"},"iteration_indptr":[0,4,8,12,16,20,24,28,32,36,40,44,48,52,56,60,64,68,72,76,80,84,88,92,96,100,104,108,112,116,120,124,128,132,136,140,144,148,152,156,160,164,168,172,176,180,184,188,192,196,200,204,208,212,216,220,224,228,232,236,240,244,248,252,256,260,264,268,272,276,280,284,288,292,296,300,304,308,312,316,320,324,328,332,336,340,344,348,352,356,360,364,368,372,376,380,384,388,392,396,400],"tree_info":[0,1,2,3,0,1,2,3,0,1,2,3,0,1,2,3,0,1,2,3,0,1,2,3,0,1,2,3,0,1,2,3,0,1,2,3,0,1,2,3,0,1,2,3,0,1,2,3,0,1,2,3,0,1,2,3,0,1,2,3,0,1,2,3,0,1,2,3,0,1,2,3,0,1,2,3,0,1,2,3,0,1,2,3,0,1,2,3,0,1,2,3,0,1,2,3,0,1,2,3,0,1,2,3,0,1,2,3,0,1,2,3,0,1,2,3,0,1,2,3,0,1,2,3,0,1,2,3,0,1,2,3,0,1,2,3,0,1,2,3,0,1,2,3,0,1,2,3,0,1,2,3,0,1,2,3,0,1,2,3,0,1,2,3,0,1,2,3,0,1,2,3,0,1,2,3,0,1,2,3,0,1,2,3,0,1,2,3,0,1,2,3,0,1,2,3,0,1,2,3,0,1,2,3,0,1,2,3,0,1,2,3,0,1,2,3,0,1,2,3,0,1,2,3,0,1,2,3,0,1,2,3,0,1,2,3,0,1,2,3,0,1,2,3,0,1,2,3,0,1,2,3,0,1,2,3,0,1,2,3,0,1,2,3,0,1,2,3,0,1,2,3,0,1,2,3,0,1,2,3,0,1,2,3,0,1,2,3,0,1,2,3,0,1,2,3,0,1,2,3,0,1,2,3,0,1,2,3,0,1,2,3,0,1,2,3,0,1,2,3,0,1,2,3,0,1,2,3,0,1,2,3,0,1,2,3,0,1,2,3,0,1,2,3,0,1,2,3,0,1,2,3,0,1,2,3,0,1,2,3,0,1,2,3,0,1,2,3,0,1,2,3,0,1,2,3,0,1,2,3,0,1,2,3,0,1,2,3,0,1,2,3,0,1,2,3,0,1,2,3],"trees":[{"base_weights":[-2.2177644E-1,-3.4948704E-1,-1.1416875E-1,-5.6653124E-1,-2.3732282E-1,1.4529952E-2,-3.5676208E-1,-5.844423E-1,7.188612E-1,-3.2324684E-1,7.253886E-2,7.449243E-2,-4.877651E-1,-4.8863286E-1,1.615509E-1,-6.061013E-1,1.8978103E-1,1.4634147E0,-3.04E-1,-1.4040005E-1,-5.1555794E-1,1.9308832E-1,-6.5562916E-1,1.2096213E-1,-3.880597E-1,-6.6323376E-1,1.7898832E-1,-5.5791265E-1,1.8461539E-1,2.3713844E-1,-6.3573086E-1,-6.41999E-1,-2.1791768E-1,-5.625E-1,4.1121495E-1,-2.857143E-1,5.474453E-1,-1.8545455E-1,3.9130437E-1,1.265128E-1,-4.1841114E-1,-5.614731E-1,3E-1,1.5772517E-1,1.7515528E0,3.529412E-2,-1.9866556E-1,1.6677818E-1,-2.1704036E-1,-6.436609E-1,2.3765996E-1,-1.9958709E-1,3.529412E-2,3.2930844E-2,1.232E0,-5.789595E-1,5.325444E-1,5.754452E-1,-3.653088E-1,-1.9424462E-1,2.9443532E-1,3.529412E-2,-1.9620854E-1,-1.9459368E-1,9.375E-2,-1.2717609E-1,5.3806454E-1,-1.8655464E-1,3.529412E-2,2.8249028E-1,-1.1061453E-1,3.529412E-2,-1.3846155E-1,2.398762E-2,4.3940523E-1,-1.5496208E-1,5.03156E-2,-1.8233459E-1,1.6281407E-2,-1.2972973E-1,2.15625E-1,3.4450826E-3,1.826087E-1,-0E0,5.6778526E-1,4.728386E-2,4.6604654E-1,1.682243E-2,-1.870608E-1,-1.9668052E-1,2.8695655E-1,2.71066E-1,2.718232E-2,-9.4736844E-2,1.3129412E-1,4.4727275E-1,-1.3043478E-1,-1.7966741E-1,1.20000005E-1,3.5533983E-1,-1.3714287E-1,2.5350994E-1,-2.25E-2,3.9428574E-1,-1.3242507E-1,5.5609757E-1,6.946137E-2],"categories":[],"categories_nodes":[],"categories_segments":[],"categories_sizes":[],"default_left":[0,0,0,0,0,0,0,0,0,0,0,0,0,0,0,0,0,0,0,0,0,0,0,0,0,0,0,0,0,0,0,0,0,0,0,0,0,0,0,0,0,0,0,0,0,0,0,0,0,0,0,0,0,0,0,0,0,0,0,0,0,0,0,0,0,0,0,0,0,0,0,0,0,0,0,0,0,0,0,0,0,0,0,0,0,0,0,0,0,0,0,0,0,0,0,0,0,0,0,0,0,0,0,0,0,0,0],"id":0,"left_children":[1,3,5,7,9,11,13,15,17,19,21,23,25,27,29,31,33,35,37,39,41,43,45,47,49,51,53,55,57,59,61,63,65,67,69,71,-1,-1,-1,73,75,77,79,81,83,-1,-1,85,87,89,91,-1,-1,93,95,97,99,101,103,-1,105,-1,-1,-1,-1,-1,-1,-1,-1,-1,-1,-1,-1,-1,-1,-1,-1,-1,-1,-1,-1,-1,-1,-1,-1,-1,-1,-1,-1,-1,-1,-1,-1,-1,-1,-1,-1,-1,-1,-1,-1,-1,-1,-1,-1,-1,-1],"loss_changes":[2.2260468E2,1.8021027E2,2.745666E2,5.8512268E1,1.301044E2,1.7312186E2,2.0842786E2,4.1854797E1,2.7195194E1,1.3443668E2,9.3305336E1,1.1041663E2,7.183624E1,1.1345593E2,3.745453E1,3.3605225E1,1.1642076E1,1.3480251E1,8.70185E0,1.4566116E2,6.996863E1,4.995851E1,8.473129E-1,7.23052E1,7.5162346E1,8.579407E-1,1.972276E1,5.0885986E1,4.9106052E1,2.8885244E1,8.196087E-1,1.4262146E1,8.632715E1,7.1901274E-1,2.2479607E1,3.6457664E-1,0E0,0E0,0E0,6.2296993E1,5.538144E1,5.0360962E1,3.0981419E1,5.88457E1,4.9725304E0,0E0,0E0,5.1994972E1,6.192867E1,6.994629E0,1.3308842E1,0E0,0E0,1.6209698E1,7.391115E0,4.243524E1,2.7801107E1,2.345097E1,1.2740046E1,0E0,5.1781414E1,0E0,0E0,0E0,0E0,0E0,0E0,0E0,0E0,0E0,0E0,0E0,0E0,0E0,0E0,0E0,0E0,0E0,0E0,0E0,0E0,0E0,0E0,0E0,0E0,0E0,0E0,0E0,0E0,0E0,0E0,0E0,0E0,0E0,0E0,0E0,0E0,0E0,0E0,0E0,0E0,0E0,0E0,0E0,0E0,0E0,0E0],"parents":[2147483647,0,0,1,1,2,2,3,3,4,4,5,5,6,6,7,7,8,8,9,9,10,10,11,11,12,12,13,13,14,14,15,15,16,16,17,17,18,18,19,19,20,20,21,21,22,22,23,23,24,24,25,25,26,26,27,27,28,28,29,29,30,30,31,31,32,32,33,33,34,34,35,35,39,39,40,40,41,41,42,42,43,43,44,44,47,47,48,48,49,49,50,50,53,53,54,54,55,55,56,56,57,57,58,58,60,60],"right_children":[2,4,6,8,10,12,14,16,18,20,22,24,26,28,30,32,34,36,38,40,42,44,46,48,50,52,54,56,58,60,62,64,66,68,70,72,-1,-1,-1,74,76,78,80,82,84,-1,-1,86,88,90,92,-1,-1,94,96,98,100,102,104,-1,106,-1,-1,-1,-1,-1,-1,-1,-1,-1,-1,-1,-1,-1,-1,-1,-1,-1,-1,-1,-1,-1,-1,-1,-1,-1,-1,-1,-1,-1,-1,-1,-1,-1,-1,-1,-1,-1,-1,-1,-1,-1,-1,-1,-1,-1,-1],"split_conditions":[1.4361942E-1,1.1212057E-1,2.148406E-1,4.2852518E-1,2.6036397E-1,2.5012425E-1,3.3544132E-1,3.3096585E-1,1.6142996E-1,1.8449709E-1,2.4556325E-1,2.6688424E-1,3.4423047E-1,2.4946795E-1,1.5751706E-1,2.4279618E-1,8.76722E-3,2.2503948E-1,1.3780592E-1,1.1595132E-1,2.559205E-1,2.80022E-1,2.293867E-3,2.1772064E-1,2.0959051E-1,2.028195E-1,1.2019163E-1,2.629008E-1,2.3665228E-1,3.6279165E-5,4.063895E-2,2.4995716E-1,2.7119303E-1,3.5938174E-1,1.1261557E-1,1.6032966E-2,5.474453E-1,-1.8545455E-1,3.9130437E-1,3.7280488E-1,2.065382E-1,3.2536867E-1,4.9962968E-2,2.7105808E-1,8.969657E-2,3.529412E-2,-1.9866556E-1,3.7342468E-1,2.1344455E-1,2.358861E-1,1.8157572E-2,-1.9958709E-1,3.529412E-2,4.064011E-2,9.914487E-2,3.0683056E-1,3.3864684E-2,1.4670198E-1,5.476336E-2,-1.9424462E-1,3.2376774E-5,3.529412E-2,-1.9620854E-1,-1.9459368E-1,9.375E-2,-1.2717609E-1,5.3806454E-1,-1.8655464E-1,3.529412E-2,2.8249028E-1,-1.1061453E-1,3.529412E-2,-1.3846155E-1,2.398762E-2,4.3940523E-1,-1.5496208E-1,5.03156E-2,-1.8233459E-1,1.6281407E-2,-1.2972973E-1,2.15625E-1,3.4450826E-3,1.826087E-1,-0E0,5.6778526E-1,4.728386E-2,4.6604654E-1,1.682243E-2,-1.870608E-1,-1.9668052E-1,2.8695655E-1,2.71066E-1,2.718232E-2,-9.4736844E-2,1.3129412E-1,4.4727275E-1,-1.3043478E-1,-1.7966741E-1,1.20000005E-1,3.5533983E-1,-1.3714287E-1,2.5350994E-1,-2.25E-2,3.9428574E-1,-1.3242507E-1,5.5609757E-1,6.946137E-2],"split_indices":[420,614,1095,1546,982,921,113,270,868,1118,920,1587,76,1345,576,1445,90,1042,272,131,1243,1683,53,662,421,603,1122,391,781,121,31,439,1356,9,1015,63,0,0,0,1739,1362,1251,1362,1554,1470,0,0,1518,558,1076,150,0,0,1718,608,183,1257,1118,1268,0,18,0,0,0,0,0,0,0,0,0,0,0,0,0,0,0,0,0,0,0,0,0,0,0,0,0,0,0,0,0,0,0,0,0,0,0,0,0,0,0,0,0,0,0,0,0,0],"split_type":[0,0,0,0,0,0,0,0,0,0,0,0,0,0,0,0,0,0,0,0,0,0,0,0,0,0,0,0,0,0,0,0,0,0,0,0,0,0,0,0,0,0,0,0,0,0,0,0,0,0,0,0,0,0,0,0,0,0,0,0,0,0,0,0,0,0,0,0,0,0,0,0,0,0,0,0,0,0,0,0,0,0,0,0,0,0,0,0,0,0,0,0,0,0,0,0,0,0,0,0,0,0,0,0,0,0,0],"sum_hessian":[1.62E4,7.407E3,8.793E3,2.52225E3,4.88475E3,5.74575E3,3.04725E3,2.488125E3,3.4125E1,3.82425E3,1.0605E3,5.13375E3,6.12E2,2.42925E3,6.18E2,2.420625E3,6.75E1,1.95E1,1.4625E1,1.96125E3,1.863E3,9.105E2,1.5E2,4.66575E3,4.68E2,4.845E2,1.275E2,2.20275E3,2.265E2,5.65125E2,5.2875E1,2.215125E3,2.055E2,1.5E1,5.25E1,3.375E0,1.6125E1,1.275E1,1.875E0,1.000875E3,9.60375E2,1.764E3,9.9E1,8.91375E2,1.9125E1,1.125E0,1.48875E2,4.10925E3,5.565E2,3.3225E2,1.3575E2,4.83375E2,1.125E0,1.12875E2,1.4625E1,2.1615E3,4.125E1,1.32375E2,9.4125E1,3.375E1,5.31375E2,1.125E0,5.175E1,2.200125E3,1.5E1,1.87125E2,1.8375E1,1.3875E1,1.125E0,3.1125E1,2.1375E1,1.125E0,2.25E0,9.6825E2,3.2625E1,8.2275E2,1.37625E2,1.640625E3,1.23375E2,3.6E1,6.3E1,6.73875E2,2.175E2,1.5E0,1.7625E1,4.083375E3,2.5875E1,3.33375E2,2.23125E2,3.30375E2,1.875E0,2.3625E1,1.12125E2,6.075E1,5.2125E1,1.275E1,1.875E0,2.11875E3,4.275E1,2.475E1,1.65E1,9.3375E1,3.9E1,3.375E0,9.075E1,1.95E1,5.11875E2],"tree_param":{"num_deleted":"0","num_feature":"1764","num_nodes":"107","size_leaf_vector":"1"}},{"base_weights":[-2.2356644E-1,-3.4289336E-1,-9.2590496E-2,-5.2958343E-2,-4.5438954E-1,-2.8518674E-1,4.7249373E-2,-5.820569E-1,7.435678E-2,-4.791636E-1,2.6171637E-1,8.771733E-2,-4.795787E-1,1.4810479E-1,-2.7763376E-1,4E-1,-6.419252E-1,-5.2307695E-1,1.5554726E-1,-5.082116E-1,1.0922113E-1,1.4117647E0,2.1099178E-1,2.4852785E-1,-3.7565216E-1,-5.176155E-1,4.2774567E-1,1.0141023E-1,7.099237E-1,2.9388191E-2,-5.1904863E-1,-1.3664596E-1,5.225807E-1,-6.580189E-1,2.769231E-1,7.532467E-1,-5.768132E-1,2.000318E-1,-5.3251535E-1,-5.566842E-1,-1.8805718E-1,3.5453984E-1,-5.2969503E-1,-0E0,5.1428574E-1,-2.5742576E-1,3.6899748E-1,2.9296133E-1,-6.25387E-1,-6E-1,1.7964073E-1,-5.8228207E-1,-1.03370786E-1,-2.6200874E-2,1.2727273E0,1.6363636E0,9.060456E-2,1.1467474E0,-3.5805628E-2,1.8057455E-1,-5.0544137E-1,2.8739002E-1,-5.803531E-1,2.7272728E-1,-1.488E-1,-1.9881657E-1,1.20000005E-1,3E-1,-1.0243903E-1,4.4680852E-1,-9.4736844E-2,2.1428573E-1,-1.8496771E-1,7.036697E-2,-1.3964687E-1,1.3043478E-1,-1.9452806E-1,-8.2238875E-2,-1.7806764E-1,-1.3440248E-1,8.8260666E-2,1.9593999E-2,3.0364373E-1,-1.7368421E-1,2.8695655E-1,-1.0334191E-1,3.9130437E-1,3.663717E-1,8.31793E-2,8.024493E-2,5.127273E-1,-1.9490446E-1,3.529412E-2,-1.9451372E-1,3.818182E-1,-1.0866142E-1,1.507109E-1,-1.794549E-1,1.3761468E-1,-1.4016111E-1,3.8709678E-2,-1.051213E-1,3.7263158E-1,5.04E-1,-1.6800001E-1,-1.3846155E-1,5.696203E-1,-3.134766E-2,5.5552926E-2,3.80937E-1,-1.826087E-1,3.696E-1,-8.2105264E-2,7.32571E-2,-1.8190047E-1,1.7647061E-1,-1.7913951E-1,-6.6914503E-3,3.9000002E-1,-1.9171508E-1,-2.1841541E-2],"categories":[],"categories_nodes":[],"categories_segments":[],"categories_sizes":[],"default_left":[0,0,0,0,0,0,0,0,0,0,0,0,0,0,0,0,0,0,0,0,0,0,0,0,0,0,0,0,0,0,0,0,0,0,0,0,0,0,0,0,0,0,0,0,0,0,0,0,0,0,0,0,0,0,0,0,0,0,0,0,0,0,0,0,0,0,0,0,0,0,0,0,0,0,0,0,0,0,0,0,0,0,0,0,0,0,0,0,0,0,0,0,0,0,0,0,0,0,0,0,0,0,0,0,0,0,0,0,0,0,0,0,0,0,0,0,0,0,0,0,0],"id":1,"left_children":[1,3,5,7,9,11,13,15,17,19,21,23,25,27,29,31,33,35,37,39,41,43,45,47,49,51,53,55,57,59,61,63,-1,65,67,69,71,73,75,77,79,81,83,-1,-1,85,87,89,91,93,95,97,99,101,103,105,107,109,111,113,115,117,119,-1,-1,-1,-1,-1,-1,-1,-1,-1,-1,-1,-1,-1,-1,-1,-1,-1,-1,-1,-1,-1,-1,-1,-1,-1,-1,-1,-1,-1,-1,-1,-1,-1,-1,-1,-1,-1,-1,-1,-1,-1,-1,-1,-1,-1,-1,-1,-1,-1,-1,-1,-1,-1,-1,-1,-1,-1,-1],"loss_changes":[2.531731E2,2.7401288E2,2.0806473E2,1.5872348E2,1.0874365E2,2.3560593E2,1.4671092E2,2.7125671E1,9.222443E1,1.0120471E2,1.1682829E1,8.313067E1,7.394708E1,8.955606E1,7.863768E1,1.9591904E1,6.557541E0,1.6037552E1,5.1317783E1,8.7418945E1,4.395691E1,3.630251E0,1.4740239E1,3.2330482E1,3.592418E1,5.4874817E1,3.3212715E1,5.218951E1,8.538814E1,3.7923145E1,2.9526962E1,8.013679E0,0E0,2.3748627E0,3.974484E0,8.0445595E0,1.1672127E1,3.62347E1,1.1704243E1,5.086743E1,9.3292816E1,3.8425026E1,6.254198E0,0E0,0E0,7.3146925E0,1.1261171E1,2.799231E1,8.0526924E-1,1.9398361E1,1.4783541E1,2.9632935E1,2.3577385E1,2.397582E1,2.3519997E1,1.2985744E1,5.7852943E1,3.6465973E1,2.9816996E1,1.8444939E1,1.0717653E1,1.3396201E1,1.6405884E1,0E0,0E0,0E0,0E0,0E0,0E0,0E0,0E0,0E0,0E0,0E0,0E0,0E0,0E0,0E0,0E0,0E0,0E0,0E0,0E0,0E0,0E0,0E0,0E0,0E0,0E0,0E0,0E0,0E0,0E0,0E0,0E0,0E0,0E0,0E0,0E0,0E0,0E0,0E0,0E0,0E0,0E0,0E0,0E0,0E0,0E0,0E0,0E0,0E0,0E0,0E0,0E0,0E0,0E0,0E0,0E0,0E0,0E0],"parents":[2147483647,0,0,1,1,2,2,3,3,4,4,5,5,6,6,7,7,8,8,9,9,10,10,11,11,12,12,13,13,14,14,15,15,16,16,17,17,18,18,19,19,20,20,21,21,22,22,23,23,24,24,25,25,26,26,27,27,28,28,29,29,30,30,31,31,33,33,34,34,35,35,36,36,37,37,38,38,39,39,40,40,41,41,42,42,45,45,46,46,47,47,48,48,49,49,50,50,51,51,52,52,53,53,54,54,55,55,56,56,57,57,58,58,59,59,60,60,61,61,62,62],"right_children":[2,4,6,8,10,12,14,16,18,20,22,24,26,28,30,32,34,36,38,40,42,44,46,48,50,52,54,56,58,60,62,64,-1,66,68,70,72,74,76,78,80,82,84,-1,-1,86,88,90,92,94,96,98,100,102,104,106,108,110,112,114,116,118,120,-1,-1,-1,-1,-1,-1,-1,-1,-1,-1,-1,-1,-1,-1,-1,-1,-1,-1,-1,-1,-1,-1,-1,-1,-1,-1,-1,-1,-1,-1,-1,-1,-1,-1,-1,-1,-1,-1,-1,-1,-1,-1,-1,-1,-1,-1,-1,-1,-1,-1,-1,-1,-1,-1,-1,-1,-1,-1],"split_conditions":[1.8136814E-1,5.86869E-2,1.8288262E-1,7.835442E-2,2.551098E-1,5.907507E-2,2.2480966E-1,9.515807E-2,5.7164647E-2,2.8648692E-1,1.23067405E-2,2.0558149E-1,3.2841176E-1,2.7936903E-1,1.142477E-1,2.2531685E-1,1.5590969E-1,7.397013E-2,2.2908768E-1,2.514064E-1,2.825606E-1,1.3007914E-1,1.0221141E-1,2.2377117E-1,2.1861848E-1,2.7753294E-1,1.8065973E-1,5.296579E-3,1.408223E-1,2.1115568E-1,7.24764E-2,4.4903707E-2,5.225807E-1,2.6836538E-1,6.412945E-2,2.7993408E-1,4.9375396E-2,2.0635927E-1,2.2032632E-2,8.732992E-2,1.9879243E-1,1.7881443E-1,1.3420033E-1,-0E0,5.1428574E-1,2.2908926E-1,6.655438E-2,3.1896204E-1,1.7502E-1,3.1600615E-1,5.2963417E-2,2.3768686E-1,1.1370226E-1,1.9824119E-1,2.1553728E-1,2.6973207E-3,2.0948508E-1,2.2958364E-1,6.8774144E-3,2.742533E-1,2.0545647E-1,4.030419E-1,2.0506704E-1,2.7272728E-1,-1.488E-1,-1.9881657E-1,1.20000005E-1,3E-1,-1.0243903E-1,4.4680852E-1,-9.4736844E-2,2.1428573E-1,-1.8496771E-1,7.036697E-2,-1.3964687E-1,1.3043478E-1,-1.9452806E-1,-8.2238875E-2,-1.7806764E-1,-1.3440248E-1,8.8260666E-2,1.9593999E-2,3.0364373E-1,-1.7368421E-1,2.8695655E-1,-1.0334191E-1,3.9130437E-1,3.663717E-1,8.31793E-2,8.024493E-2,5.127273E-1,-1.9490446E-1,3.529412E-2,-1.9451372E-1,3.818182E-1,-1.0866142E-1,1.507109E-1,-1.794549E-1,1.3761468E-1,-1.4016111E-1,3.8709678E-2,-1.051213E-1,3.7263158E-1,5.04E-1,-1.6800001E-1,-1.3846155E-1,5.696203E-1,-3.134766E-2,5.5552926E-2,3.80937E-1,-1.826087E-1,3.696E-1,-8.2105264E-2,7.32571E-2,-1.8190047E-1,1.7647061E-1,-1.7913951E-1,-6.6914503E-3,3.9000002E-1,-1.9171508E-1,-2.1841541E-2],"split_indices":[603,370,674,625,382,367,593,678,1110,389,921,204,164,375,349,803,653,664,199,1042,1553,106,1171,906,1187,782,899,162,1683,663,286,556,0,394,161,488,1053,205,852,930,1096,1261,110,0,0,23,1363,1245,20,1416,1749,954,1206,129,600,236,631,484,134,1653,1124,1699,654,0,0,0,0,0,0,0,0,0,0,0,0,0,0,0,0,0,0,0,0,0,0,0,0,0,0,0,0,0,0,0,0,0,0,0,0,0,0,0,0,0,0,0,0,0,0,0,0,0,0,0,0,0,0,0,0,0,0],"split_type":[0,0,0,0,0,0,0,0,0,0,0,0,0,0,0,0,0,0,0,0,0,0,0,0,0,0,0,0,0,0,0,0,0,0,0,0,0,0,0,0,0,0,0,0,0,0,0,0,0,0,0,0,0,0,0,0,0,0,0,0,0,0,0,0,0,0,0,0,0,0,0,0,0,0,0,0,0,0,0,0,0,0,0,0,0,0,0,0,0,0,0,0,0,0,0,0,0,0,0,0,0,0,0,0,0,0,0,0,0,0,0,0,0,0,0,0,0,0,0,0,0],"sum_hessian":[1.62E4,8.476125E3,7.723875E3,2.354625E3,6.1215E3,3.248625E3,4.47525E3,4.56E2,1.898625E3,5.917125E3,2.04375E2,1.113375E3,2.13525E3,3.4155E3,1.05975E3,2.5875E1,4.30125E2,2.265E2,1.672125E3,5.638875E3,2.7825E2,7.5E0,1.96875E2,8.26875E2,2.865E2,2.04975E3,8.55E1,3.1545E3,2.61E2,4.66875E2,5.92875E2,1.9125E1,6.75E0,4.23E2,7.125E0,8.625E0,2.17875E2,1.57125E3,1.00875E2,4.89675E3,7.42125E2,2.01375E2,7.6875E1,1.5E0,6E0,4.95E1,1.47375E2,7.875E2,3.9375E1,2.04E2,8.25E1,1.772625E3,2.77125E2,5.625E1,2.925E1,2.1E1,3.1335E3,1.6425E2,9.675E1,3.645E2,1.02375E2,4.1625E1,5.5125E2,4.5E0,1.4625E1,4.215E2,1.5E0,3E0,4.125E0,4.875E0,3.75E0,6E0,2.11875E2,1.494375E3,7.6875E1,1.05E1,9.0375E1,5.6625E2,4.3305E3,4.8225E2,2.59875E2,1.40625E2,6.075E1,7.5E1,1.875E0,4.7625E1,1.875E0,1.3125E1,1.3425E2,7.7475E2,1.275E1,3.825E1,1.125E0,1.995E2,4.5E0,3.075E1,5.175E1,1.746375E3,2.625E1,1.07625E2,1.695E2,4.5375E1,1.0875E1,2.4E1,5.25E0,2.25E0,1.875E1,1.023E3,2.1105E3,1.5375E2,1.05E1,1.4625E1,8.2125E1,3.37875E2,2.6625E1,7.5E0,9.4875E1,3.2625E1,9E0,4.93875E2,5.7375E1],"tree_param":{"num_deleted":"0","num_feature":"1764","num_nodes":"121","size_leaf_vector":"1"}},{"base_weights":[-2.2115919E-1,-3.374555E-1,-9.932394E-2,-3.8266107E-1,1.9127774E-1,3.559746E-2,-3.573137E-1,-4.3040195E-1,2.6608232E-2,3.410997E-1,-4.915254E-1,8.889834E-2,-4.6975806E-1,-4.9898863E-1,1.9482565E-1,-4.878889E-1,-6.119951E-3,2.0787084E-1,-5.963939E-1,1.1938099E-1,7.187894E-1,-6.2216926E-1,5.132743E-1,1.3344108E-1,-4.306864E-1,-6.4705884E-1,1.8867925E-1,-5.763844E-1,1.9369628E-1,2.6594168E-1,-5.159705E-1,-5.175818E-1,1.9870195E-1,-4.8357037E-1,2.099889E-1,1.2264778E-1,1.0672646E0,-6.402827E-1,3.9428574E-1,4.9672252E-1,-2.6538175E-1,5.258558E-1,1.8914027E0,-6.4087063E-1,1.20000005E-1,-1.4084508E-1,1.36E0,1.7838864E-1,-2.554968E-1,-6.2255114E-1,2.1961933E-1,-1.9948354E-1,9.4736844E-1,4.037685E-2,1.1504425E0,-5.903482E-1,5.242106E-1,-2.784272E-1,7.389163E-1,2.0977543E-1,1.0483271E0,-5.9183675E-1,2.8695655E-1,-9.456179E-2,-1.7301911E-1,1.9311877E-2,4.047847E-1,1.2803349E-1,-1.8053098E-1,3.8267717E-1,4.3813102E-2,-8.295538E-2,8.853705E-2,5.5986625E-1,-1.5870968E-1,2.3076925E-1,-1.988547E-1,4.7976308E-2,4.2391306E-1,-1.0216719E-1,3.7846157E-1,-4.7339454E-2,2.8995216E-1,1.7647061E-1,5.7735854E-1,-1.9802956E-1,7.826087E-2,2.8695655E-1,-1.7142859E-1,4.8292685E-1,3.529412E-2,8.28314E-2,-5.464058E-3,-1.1955168E-1,2.791774E-1,-1.9503985E-1,2.425532E-1,2.1086263E-2,4.8923078E-1,4.3448275E-1,-1.0588236E-1,-4.6779662E-2,2.2732921E-1,-1.3043478E-1,4.2857146E-1,-1.8502732E-1,7.7378444E-2,-1.0308371E-1,3.6585367E-1,4.4587156E-1,1.3754153E-1,4.8972793E-2,3.235602E-1,-1.20000005E-1,3.99119E-1,1.7647061E-1,-1.8955614E-1],"categories":[],"categories_nodes":[],"categories_segments":[],"categories_sizes":[],"default_left":[0,0,0,0,0,0,0,0,0,0,0,0,0,0,0,0,0,0,0,0,0,0,0,0,0,0,0,0,0,0,0,0,0,0,0,0,0,0,0,0,0,0,0,0,0,0,0,0,0,0,0,0,0,0,0,0,0,0,0,0,0,0,0,0,0,0,0,0,0,0,0,0,0,0,0,0,0,0,0,0,0,0,0,0,0,0,0,0,0,0,0,0,0,0,0,0,0,0,0,0,0,0,0,0,0,0,0,0,0,0,0,0,0,0,0,0,0],"id":2,"left_children":[1,3,5,7,9,11,13,15,17,19,21,23,25,27,29,31,33,35,37,39,41,43,45,47,49,51,53,55,57,59,61,63,65,67,69,71,73,75,-1,77,79,81,83,85,-1,87,89,91,93,95,97,-1,99,101,103,105,-1,107,109,111,113,115,-1,-1,-1,-1,-1,-1,-1,-1,-1,-1,-1,-1,-1,-1,-1,-1,-1,-1,-1,-1,-1,-1,-1,-1,-1,-1,-1,-1,-1,-1,-1,-1,-1,-1,-1,-1,-1,-1,-1,-1,-1,-1,-1,-1,-1,-1,-1,-1,-1,-1,-1,-1,-1,-1,-1],"loss_changes":[2.2951825E2,1.9818225E2,2.754685E2,1.4921045E2,6.7020004E1,1.400276E2,2.1267175E2,1.6678955E2,9.0310295E1,4.484117E1,1.5809305E1,1.0887925E2,5.802585E1,1.1606537E2,2.8223501E1,1.2288037E2,8.4400635E1,4.5232235E1,1.5956818E1,4.9386497E1,4.385678E1,2.261139E0,8.014817E0,7.576805E1,4.648905E1,1.178064E1,1.5072519E1,6.416791E1,5.6353542E1,2.200459E1,6.2494736E0,6.8922485E1,3.8610188E1,2.768208E1,3.8185127E1,3.8954E1,7.208923E1,6.1358337E0,0E0,5.2740635E1,1.9785585E1,5.185507E1,6.0440063E-2,1.9645729E0,0E0,4.7400928E0,1.7498989E0,7.460925E1,7.655189E1,1.185878E1,1.7876411E1,0E0,3.6049967E0,1.3197708E1,6.8487873E0,4.350525E1,0E0,1.190434E1,2.0591213E1,1.8950373E1,1.4268932E1,2.685606E0,0E0,0E0,0E0,0E0,0E0,0E0,0E0,0E0,0E0,0E0,0E0,0E0,0E0,0E0,0E0,0E0,0E0,0E0,0E0,0E0,0E0,0E0,0E0,0E0,0E0,0E0,0E0,0E0,0E0,0E0,0E0,0E0,0E0,0E0,0E0,0E0,0E0,0E0,0E0,0E0,0E0,0E0,0E0,0E0,0E0,0E0,0E0,0E0,0E0,0E0,0E0,0E0,0E0,0E0,0E0],"parents":[2147483647,0,0,1,1,2,2,3,3,4,4,5,5,6,6,7,7,8,8,9,9,10,10,11,11,12,12,13,13,14,14,15,15,16,16,17,17,18,18,19,19,20,20,21,21,22,22,23,23,24,24,25,25,26,26,27,27,28,28,29,29,30,30,31,31,32,32,33,33,34,34,35,35,36,36,37,37,39,39,40,40,41,41,42,42,43,43,45,45,46,46,47,47,48,48,49,49,50,50,52,52,53,53,54,54,55,55,57,57,58,58,59,59,60,60,61,61],"right_children":[2,4,6,8,10,12,14,16,18,20,22,24,26,28,30,32,34,36,38,40,42,44,46,48,50,52,54,56,58,60,62,64,66,68,70,72,74,76,-1,78,80,82,84,86,-1,88,90,92,94,96,98,-1,100,102,104,106,-1,108,110,112,114,116,-1,-1,-1,-1,-1,-1,-1,-1,-1,-1,-1,-1,-1,-1,-1,-1,-1,-1,-1,-1,-1,-1,-1,-1,-1,-1,-1,-1,-1,-1,-1,-1,-1,-1,-1,-1,-1,-1,-1,-1,-1,-1,-1,-1,-1,-1,-1,-1,-1,-1,-1,-1,-1,-1,-1],"split_conditions":[1.5567589E-1,3.2137826E-1,2.1772204E-1,2.9792854E-1,7.168602E-2,2.5190806E-1,3.2735944E-1,2.6971215E-1,2.6265287E-1,6.360967E-2,1.7878278E-1,2.7435786E-1,3.3837605E-1,2.4787416E-1,2.571568E-1,3.0811894E-1,1.338589E-1,2.9149875E-1,2.4722147E-1,4.9336165E-2,2.0802064E-1,1.9318783E-1,9.6834056E-2,2.3355308E-1,2.0661129E-1,2.066901E-1,1.6333096E-1,3.1580296E-1,2.3436426E-1,2.3715052E-1,3.388672E-2,1.0820627E-1,1.9283476E-1,6.0267504E-2,2.1078789E-1,6.766716E-2,1.8748842E-1,6.261068E-2,3.9428574E-1,1.9854131E-1,2.145544E-1,1.869681E-2,7.446174E-2,3.1025752E-1,1.20000005E-1,7.16013E-2,9.9153735E-2,1.3555124E-1,2.7418125E-1,2.0159058E-1,2.470805E-1,-1.9948354E-1,2.0810673E-1,2.3595591E-1,3.3550806E-2,2.2130542E-1,5.242106E-1,1.2202117E-1,1.997862E-2,1.3439263E-1,1.20356195E-1,2.160764E-2,2.8695655E-1,-9.456179E-2,-1.7301911E-1,1.9311877E-2,4.047847E-1,1.2803349E-1,-1.8053098E-1,3.8267717E-1,4.3813102E-2,-8.295538E-2,8.853705E-2,5.5986625E-1,-1.5870968E-1,2.3076925E-1,-1.988547E-1,4.7976308E-2,4.2391306E-1,-1.0216719E-1,3.7846157E-1,-4.7339454E-2,2.8995216E-1,1.7647061E-1,5.7735854E-1,-1.9802956E-1,7.826087E-2,2.8695655E-1,-1.7142859E-1,4.8292685E-1,3.529412E-2,8.28314E-2,-5.464058E-3,-1.1955168E-1,2.791774E-1,-1.9503985E-1,2.425532E-1,2.1086263E-2,4.8923078E-1,4.3448275E-1,-1.0588236E-1,-4.6779662E-2,2.2732921E-1,-1.3043478E-1,4.2857146E-1,-1.8502732E-1,7.7378444E-2,-1.0308371E-1,3.6585367E-1,4.4587156E-1,1.3754153E-1,4.8972793E-2,3.235602E-1,-1.20000005E-1,3.99119E-1,1.7647061E-1,-1.8955614E-1],"split_indices":[420,1251,1095,1628,1617,921,113,505,620,83,1704,1586,85,1345,925,659,936,1697,1231,272,751,1583,590,873,1381,881,1133,1419,781,674,1507,1201,1666,368,1716,748,1433,306,0,905,822,120,32,1593,0,1074,17,1469,1560,1591,1181,0,0,543,137,1139,0,875,1649,44,985,604,0,0,0,0,0,0,0,0,0,0,0,0,0,0,0,0,0,0,0,0,0,0,0,0,0,0,0,0,0,0,0,0,0,0,0,0,0,0,0,0,0,0,0,0,0,0,0,0,0,0,0,0,0,0,0],"split_type":[0,0,0,0,0,0,0,0,0,0,0,0,0,0,0,0,0,0,0,0,0,0,0,0,0,0,0,0,0,0,0,0,0,0,0,0,0,0,0,0,0,0,0,0,0,0,0,0,0,0,0,0,0,0,0,0,0,0,0,0,0,0,0,0,0,0,0,0,0,0,0,0,0,0,0,0,0,0,0,0,0,0,0,0,0,0,0,0,0,0,0,0,0,0,0,0,0,0,0,0,0,0,0,0,0,0,0,0,0,0,0,0,0,0,0,0,0],"sum_hessian":[1.62E4,8.2875E3,7.9125E3,7.635E3,6.525E2,5.196E3,2.7165E3,6.837375E3,7.97625E2,5.355E2,1.17E2,4.701E3,4.95E2,2.161875E3,5.54625E2,6.021375E3,8.16E2,6.18375E2,1.7925E2,3.3825E2,1.9725E2,1.03875E2,1.3125E1,4.3305E3,3.705E2,3.9E2,1.05E2,1.94475E3,2.17125E2,5.0475E2,4.9875E1,5.772E3,2.49375E2,2.53875E2,5.62125E2,5.63625E2,5.475E1,1.75875E2,3.375E0,1.70625E2,1.67625E2,1.70625E2,2.6625E1,1.02375E2,1.5E0,7.875E0,5.25E0,3.882375E3,4.48125E2,2.86125E2,8.4375E1,3.8625E2,3.75E0,9.1875E1,1.3125E1,1.933875E3,1.0875E1,1.16625E2,1.005E2,4.72125E2,3.2625E1,4.8E1,1.875E0,1.306875E3,4.465125E3,2.2425E2,2.5125E1,2.8875E1,2.25E2,3.075E1,5.31375E2,1.69875E2,3.9375E2,3.6375E1,1.8375E1,2.25E0,1.73625E2,1.25625E2,4.5E1,1.605E2,7.125E0,6.7125E1,1.035E2,1.125E0,2.55E1,1.005E2,1.875E0,1.875E0,6E0,4.125E0,1.125E0,2.593125E3,1.28925E3,4.005E2,4.7625E1,2.8125E2,4.875E0,7.725E1,7.125E0,2.625E0,1.125E0,7.275E1,1.9125E1,1.875E0,1.125E1,1.87575E3,5.8125E1,1.125E2,4.125E0,2.625E1,7.425E1,4.4925E2,2.2875E1,5.25E0,2.7375E1,1.125E0,4.6875E1],"tree_param":{"num_deleted":"0","num_feature":"1764","num_nodes":"117","size_leaf_vector":"1"}},{"base_weights":[6.6650206E-1,-9.1173984E-2,8.1526333E-1,7.8690344E-1,-5.407018E-1,1.55687E0,6.478274E-1,1.4777253E0,-6.507463E-1,-6.079788E-1,1.296E0,1.930974E0,7.4032795E-1,7.787493E-1,-1.01741314E-1,1.7140881E0,-4.3542436E-1,-1.9931419E-1,3.6E-1,-6.2362087E-1,5.460675E-1,-5.6E-1,1.8746736E0,1.9749981E0,-5.469388E-1,1.3839706E0,-2.565763E-1,1.0744259E0,4.0733638E-1,-3.7386882E-1,1.9280206E0,1.8548664E0,-4.9624062E-1,-6.4E-1,5.04E-1,-6.4E-1,1.3628318E0,-1.8620689E-1,3.529412E-2,5.87062E-1,-1.20000005E-1,1.9826827E0,-4E-1,-1.9322036E-1,3.176471E-1,1.6123133E0,-1.1009174E-2,-4.849843E-1,1.8064516E0,1.2358004E0,-1.9923696E-1,1.2016402E-1,9.9597806E-1,-4.8295763E-1,1.9539348E0,1.9789889E0,-3.4146342E-1,5.835199E-1,-1.5870968E-1,3.9130437E-1,-1.9362551E-1,3.529412E-2,-1.9674134E-1,-1.9591746E-1,4.554217E-1,-7.5E-2,5.460675E-1,5.964099E-1,-1.5428573E-1,3.529412E-2,-1.6097562E-1,5.2509856E-1,-4.6530616E-2,-1.660848E-1,4.2631578E-1,-1.8452832E-1,5.596639E-1,5.796611E-1,-1.20000005E-1,4.1819277E-1,-3.2093737E-2,-1.298476E-1,5.8958787E-1,-4.8881007E-4,5.193405E-1,2.509138E-1,5.679223E-1,-1.8164812E-1,2.5313497E-1,5.9062505E-1,1.7647061E-1,3.529412E-2,5.968296E-1,3.529412E-2,-1.5E-1],"categories":[],"categories_nodes":[],"categories_segments":[],"categories_sizes":[],"default_left":[0,0,0,0,0,0,0,0,0,0,0,0,0,0,0,0,0,0,0,0,0,0,0,0,0,0,0,0,0,0,0,0,0,0,0,0,0,0,0,0,0,0,0,0,0,0,0,0,0,0,0,0,0,0,0,0,0,0,0,0,0,0,0,0,0,0,0,0,0,0,0,0,0,0,0,0,0,0,0,0,0,0,0,0,0,0,0,0,0,0,0,0,0,0,0],"id":3,"left_children":[1,3,5,7,9,11,13,15,17,19,21,23,25,27,29,31,33,-1,-1,35,-1,37,39,41,43,45,47,49,51,53,55,57,59,61,-1,63,65,-1,-1,-1,-1,67,69,-1,-1,71,73,75,77,79,81,83,85,87,89,91,93,-1,-1,-1,-1,-1,-1,-1,-1,-1,-1,-1,-1,-1,-1,-1,-1,-1,-1,-1,-1,-1,-1,-1,-1,-1,-1,-1,-1,-1,-1,-1,-1,-1,-1,-1,-1,-1,-1],"loss_changes":[1.8261353E3,1.0502826E3,1.6805537E3,8.957987E2,2.1823633E2,7.6030176E2,1.0844336E3,2.76078E2,8.193893E0,6.5638306E1,6.817595E1,1.8756592E2,5.0413065E2,1.0325938E3,9.087218E2,1.6961145E2,3.039498E1,0E0,0E0,5.579767E1,0E0,7.156186E-1,9.734299E0,3.1452148E1,5.458417E0,1.520379E2,1.4642177E2,1.0765898E3,7.049528E2,3.6924796E2,2.317389E1,1.1066589E2,9.773055E0,8.2554054E-1,0E0,4.8193604E1,1.0875038E1,0E0,0E0,0E0,0E0,2.3394531E1,5.050216E-1,0E0,0E0,1.0031323E2,5.3723007E1,8.643515E1,9.374298E0,9.8735986E2,2.990335E2,5.502614E2,1.942091E2,2.258787E2,1.5959167E-1,3.4664917E0,4.318508E-1,0E0,0E0,0E0,0E0,0E0,0E0,0E0,0E0,0E0,0E0,0E0,0E0,0E0,0E0,0E0,0E0,0E0,0E0,0E0,0E0,0E0,0E0,0E0,0E0,0E0,0E0,0E0,0E0,0E0,0E0,0E0,0E0,0E0,0E0,0E0,0E0,0E0,0E0],"parents":[2147483647,0,0,1,1,2,2,3,3,4,4,5,5,6,6,7,7,8,8,9,9,10,10,11,11,12,12,13,13,14,14,15,15,16,16,19,19,21,21,22,22,23,23,24,24,25,25,26,26,27,27,28,28,29,29,30,30,31,31,32,32,33,33,35,35,36,36,41,41,42,42,45,45,46,46,47,47,48,48,49,49,50,50,51,51,52,52,53,53,54,54,55,55,56,56],"right_children":[2,4,6,8,10,12,14,16,18,20,22,24,26,28,30,32,34,-1,-1,36,-1,38,40,42,44,46,48,50,52,54,56,58,60,62,-1,64,66,-1,-1,-1,-1,68,70,-1,-1,72,74,76,78,80,82,84,86,88,90,92,94,-1,-1,-1,-1,-1,-1,-1,-1,-1,-1,-1,-1,-1,-1,-1,-1,-1,-1,-1,-1,-1,-1,-1,-1,-1,-1,-1,-1,-1,-1,-1,-1,-1,-1,-1,-1,-1,-1],"split_conditions":[5.001066E-2,1.0087361E-1,9.8653026E-2,2.8133485E-1,2.2414179E-1,1.4058954E-1,2.8361744E-1,2.500576E-1,1.8591082E-1,2.3811567E-1,4.530833E-2,1.6081181E-1,1.435994E-1,1.6238728E-1,2.3573981E-1,4.0630695E-1,2.5915247E-1,-1.9931419E-1,3.6E-1,2.0682207E-1,5.460675E-1,2.0296648E-2,2.0931527E-1,2.7418956E-1,1.9563413E-1,2.139741E-1,2.4856104E-1,2.3814836E-1,2.1772204E-1,2.7743784E-1,2.040258E-1,2.3311545E-1,6.334784E-2,8.786078E-2,5.04E-1,3.2631418E-1,1.6268343E-1,-1.8620689E-1,3.529412E-2,5.87062E-1,-1.20000005E-1,4.8150203E-1,5.63607E-9,-1.9322036E-1,3.176471E-1,1.8426342E-1,2.307368E-1,2.1670292E-1,2.1439081E-1,2.6073366E-1,2.4931955E-1,2.452099E-1,2.3604783E-1,2.2909744E-1,1.4214401E-1,8.144084E-2,1.6450502E-2,5.835199E-1,-1.5870968E-1,3.9130437E-1,-1.9362551E-1,3.529412E-2,-1.9674134E-1,-1.9591746E-1,4.554217E-1,-7.5E-2,5.460675E-1,5.964099E-1,-1.5428573E-1,3.529412E-2,-1.6097562E-1,5.2509856E-1,-4.6530616E-2,-1.660848E-1,4.2631578E-1,-1.8452832E-1,5.596639E-1,5.796611E-1,-1.20000005E-1,4.1819277E-1,-3.2093737E-2,-1.298476E-1,5.8958787E-1,-4.8881007E-4,5.193405E-1,2.509138E-1,5.679223E-1,-1.8164812E-1,2.5313497E-1,5.9062505E-1,1.7647061E-1,3.529412E-2,5.968296E-1,3.529412E-2,-1.5E-1],"split_indices":[369,842,839,1642,340,881,504,948,99,890,370,805,1214,420,955,1589,854,0,0,580,0,0,1363,419,136,962,915,1445,1095,1435,603,607,654,18,0,1636,1207,0,0,0,0,77,0,0,0,355,882,723,37,1000,707,919,861,1092,1,213,9,0,0,0,0,0,0,0,0,0,0,0,0,0,0,0,0,0,0,0,0,0,0,0,0,0,0,0,0,0,0,0,0,0,0,0,0,0,0],"split_type":[0,0,0,0,0,0,0,0,0,0,0,0,0,0,0,0,0,0,0,0,0,0,0,0,0,0,0,0,0,0,0,0,0,0,0,0,0,0,0,0,0,0,0,0,0,0,0,0,0,0,0,0,0,0,0,0,0,0,0,0,0,0,0,0,0,0,0,0,0,0,0,0,0,0,0,0,0,0,0,0,0,0,0,0,0,0,0,0,0,0,0,0,0,0,0],"sum_hessian":[1.62E4,2.65875E3,1.354125E4,9E2,1.75875E3,2.492625E3,1.1048625E4,6.07875E2,2.92125E2,1.69725E3,6.15E1,1.7085E3,7.84125E2,9.40575E3,1.642875E3,5.41125E2,6.675E1,2.90625E2,1.5E0,1.687125E3,1.0125E1,1.4625E1,4.6875E1,1.678875E3,2.9625E1,4.7625E2,3.07875E2,5.23575E3,4.17E3,1.449375E3,1.935E2,5.08875E2,3.225E1,6.15E1,5.25E0,1.674E3,1.3125E1,1.35E1,1.125E0,4.5375E1,1.5E0,1.673625E3,5.25E0,2.85E1,1.125E0,4.09125E2,6.7125E1,2.77875E2,3E1,4.647E3,5.8875E2,2.8035E3,1.3665E3,1.38525E3,6.4125E1,1.89375E2,4.125E0,4.905E2,1.8375E1,1.875E0,3.0375E1,1.125E0,6.0375E1,1.664625E3,9.375E0,3E0,1.0125E1,1.67025E3,3.375E0,1.125E0,4.125E0,3.795E2,2.9625E1,4.9125E1,1.8E1,2.64E2,1.3875E1,2.85E1,1.5E0,4.15725E3,4.8975E2,5.32125E2,5.6625E1,2.607375E3,1.96125E2,1.16175E3,2.0475E2,1.268625E3,1.16625E2,6.3E1,1.125E0,1.125E0,1.8825E2,1.125E0,3E0],"tree_param":{"num_deleted":"0","num_feature":"1764","num_nodes":"95","size_leaf_vector":"1"}},{"base_weights":[-1.8081135E-1,-2.1469612E-1,1.4199395E-1,-1.5799241E-1,-4.709247E-1,-2.1647072E-1,2.5625053E-1,-2.614491E-1,3.9262976E-2,-5.635623E-1,2.510002E-1,4.297183E-2,-5.776032E-1,1.0806285E0,2.221626E-1,-3.2054618E-1,8.324605E-2,-5.144823E-1,8.782359E-2,-5.817832E-1,4.8702154E-1,1.2679359E0,1.3115051E-1,-9.158882E-2,7.04413E-1,-6.1074686E-1,3.7046927E-1,1.4612745E0,1.2900816E-1,1.2344563E-1,5.141032E-1,-5.375161E-1,-1.8896644E-1,-5.3734636E-1,2.7355787E-1,-5.722068E-1,3.2236832E-1,1.1348364E-1,-5.6632996E-1,-5.9828454E-1,4.7511125E-1,1.422554E0,-2.1907352E-2,-1.5874818E-1,1.6095011E0,-6.918681E-2,7.811776E-1,-4.87308E-1,1.8079624E-1,1.6563007E0,1.459091E-1,4.8831525E-1,-1.91318E-1,1.7883797E0,-1.6130275E-1,-4.9442223E-1,4.580434E-1,2.2703716E-1,-2.168944E-1,8.279176E-1,2.265097E-1,-1.6702919E-1,7.1395606E-2,-6.4119846E-3,-1.2566319E-1,-1.8502285E-1,2.516783E-1,4.7873355E-2,2.9408255E-1,2.39299E-2,-1.850514E-1,-2.3023712E-2,4.340867E-1,4.2562876E-2,-1.1676385E-1,-1.7634034E-1,3.093525E-1,-1.8371421E-1,6.7996085E-2,3.9879286E-1,-1.3264063E-1,4.762839E-1,-9.542885E-2,2.0192283E-1,-1.6567923E-1,-1.2369607E-1,5.2748007E-1,-4.9071178E-2,4.0864715E-1,-8.511056E-4,4.2372566E-1,-1.66521E-1,3.217184E-1,-1.0820588E-2,3.945897E-1,5.399328E-1,3.2209136E-2,2.1545199E-1,-1.7969556E-1,-1.19766384E-1,3.5102633E-1,5.57795E-1,3.2190435E-2,-1.7622389E-1,4.7058336E-2,5.142511E-2,3.0422685E-1,-8.37823E-2,4.094825E-1,3.0626673E-1,-7.620339E-2,2.5164548E-1,-4.0761814E-2],"categories":[],"categories_nodes":[],"categories_segments":[],"categories_sizes":[],"default_left":[0,0,0,0,0,0,0,0,0,0,0,0,0,0,0,0,0,0,0,0,0,0,0,0,0,0,0,0,0,0,0,0,0,0,0,0,0,0,0,0,0,0,0,0,0,0,0,0,0,0,0,0,0,0,0,0,0,0,0,0,0,0,0,0,0,0,0,0,0,0,0,0,0,0,0,0,0,0,0,0,0,0,0,0,0,0,0,0,0,0,0,0,0,0,0,0,0,0,0,0,0,0,0,0,0,0,0,0,0,0,0,0,0],"id":4,"left_children":[1,3,5,7,9,11,13,15,17,19,21,23,25,27,29,31,33,35,37,39,41,43,45,47,49,51,-1,53,55,57,59,61,63,65,67,69,71,73,75,77,79,81,83,-1,85,87,89,91,93,95,97,99,-1,101,-1,103,-1,105,107,109,111,-1,-1,-1,-1,-1,-1,-1,-1,-1,-1,-1,-1,-1,-1,-1,-1,-1,-1,-1,-1,-1,-1,-1,-1,-1,-1,-1,-1,-1,-1,-1,-1,-1,-1,-1,-1,-1,-1,-1,-1,-1,-1,-1,-1,-1,-1,-1,-1,-1,-1,-1,-1],"loss_changes":[1.6662341E2,2.0019403E2,5.9338867E1,2.3036441E2,1.6714508E2,3.285413E1,3.0617004E1,1.5085931E2,1.0449501E2,4.265509E1,3.4531067E1,1.829564E1,9.5583E0,1.5511677E1,3.0361897E1,1.8035559E2,1.2823026E2,1.5319748E1,6.0022305E1,3.823755E1,1.8256824E1,1.9204262E1,3.3363876E1,1.8529926E1,1.822807E1,4.598984E0,0E0,2.1141602E1,1.2502266E1,2.791101E1,2.386065E1,3.5742737E1,1.5166336E2,2.8365631E1,6.67516E1,8.588379E0,9.472501E0,4.9125286E1,5.236454E0,2.506073E1,2.7236603E1,4.384348E0,9.872961E0,0E0,8.355995E0,2.6761679E1,2.9867546E1,7.996107E0,2.5159697E1,2.6402397E0,1.0230954E1,2.90615E0,0E0,2.9908676E0,0E0,7.024975E-1,0E0,2.6369427E1,1.8628078E1,2.6783775E1,3.1270597E1,0E0,0E0,0E0,0E0,0E0,0E0,0E0,0E0,0E0,0E0,0E0,0E0,0E0,0E0,0E0,0E0,0E0,0E0,0E0,0E0,0E0,0E0,0E0,0E0,0E0,0E0,0E0,0E0,0E0,0E0,0E0,0E0,0E0,0E0,0E0,0E0,0E0,0E0,0E0,0E0,0E0,0E0,0E0,0E0,0E0,0E0,0E0,0E0,0E0,0E0,0E0,0E0],"parents":[2147483647,0,0,1,1,2,2,3,3,4,4,5,5,6,6,7,7,8,8,9,9,10,10,11,11,12,12,13,13,14,14,15,15,16,16,17,17,18,18,19,19,20,20,21,21,22,22,23,23,24,24,25,25,27,27,28,28,29,29,30,30,31,31,32,32,33,33,34,34,35,35,36,36,37,37,38,38,39,39,40,40,41,41,42,42,44,44,45,45,46,46,47,47,48,48,49,49,50,50,51,51,53,53,55,55,57,57,58,58,59,59,60,60],"right_children":[2,4,6,8,10,12,14,16,18,20,22,24,26,28,30,32,34,36,38,40,42,44,46,48,50,52,-1,54,56,58,60,62,64,66,68,70,72,74,76,78,80,82,84,-1,86,88,90,92,94,96,98,100,-1,102,-1,104,-1,106,108,110,112,-1,-1,-1,-1,-1,-1,-1,-1,-1,-1,-1,-1,-1,-1,-1,-1,-1,-1,-1,-1,-1,-1,-1,-1,-1,-1,-1,-1,-1,-1,-1,-1,-1,-1,-1,-1,-1,-1,-1,-1,-1,-1,-1,-1,-1,-1,-1,-1,-1,-1,-1,-1],"split_conditions":[3.0829802E-1,2.0163724E-1,1.16072446E-1,1.739898E-1,3.6458418E-1,1.4074686E-1,1.6469257E-2,2.6448345E-1,6.741777E-2,4.1194174E-1,6.464324E-2,2.2175817E-1,2.6100934E-1,1.6788702E-1,1.3490398E-1,1.4720938E-1,9.4146654E-2,1.8426342E-1,2.4535893E-1,2.9418665E-1,4.138078E-2,1.8816964E-1,2.0572087E-1,2.6855815E-2,2.5545353E-1,5.1418666E-2,3.7046927E-1,3.0238512E-1,7.75679E-2,8.1564136E-2,5.7908628E-2,2.5635928E-1,2.0561476E-1,2.1473134E-1,3.5738714E-2,7.63882E-2,2.4155779E-1,2.5156227E-1,3.124963E-1,2.6547673E-1,1.19413294E-1,9.2489496E-2,1.6160007E-1,-1.5874818E-1,2.9218534E-2,2.6393145E-1,2.4819061E-1,1.8138017E-1,4.1753256E-1,1.7986383E-1,5.9594437E-2,1.1530128E-1,-1.91318E-1,1.8990906E-1,-1.6130275E-1,1.5769917E-1,4.580434E-1,2.323317E-1,3.1295592E-1,1.9842695E-1,1.5871617E-1,-1.6702919E-1,7.1395606E-2,-6.4119846E-3,-1.2566319E-1,-1.8502285E-1,2.516783E-1,4.7873355E-2,2.9408255E-1,2.39299E-2,-1.850514E-1,-2.3023712E-2,4.340867E-1,4.2562876E-2,-1.1676385E-1,-1.7634034E-1,3.093525E-1,-1.8371421E-1,6.7996085E-2,3.9879286E-1,-1.3264063E-1,4.762839E-1,-9.542885E-2,2.0192283E-1,-1.6567923E-1,-1.2369607E-1,5.2748007E-1,-4.9071178E-2,4.0864715E-1,-8.511056E-4,4.2372566E-1,-1.66521E-1,3.217184E-1,-1.0820588E-2,3.945897E-1,5.399328E-1,3.2209136E-2,2.1545199E-1,-1.7969556E-1,-1.19766384E-1,3.5102633E-1,5.57795E-1,3.2190435E-2,-1.7622389E-1,4.7058336E-2,5.142511E-2,3.0422685E-1,-8.37823E-2,4.094825E-1,3.0626673E-1,-7.620339E-2,2.5164548E-1,-4.0761814E-2],"split_indices":[1642,1155,1358,353,129,71,1262,1433,1183,1590,636,1253,374,1315,1754,880,1331,355,860,1405,762,865,1253,1501,1615,538,0,1420,135,1752,120,383,1131,1103,1649,635,1715,91,1606,1407,1005,420,1152,0,844,1565,182,741,111,856,136,18,0,633,0,1445,0,807,1729,1725,839,0,0,0,0,0,0,0,0,0,0,0,0,0,0,0,0,0,0,0,0,0,0,0,0,0,0,0,0,0,0,0,0,0,0,0,0,0,0,0,0,0,0,0,0,0,0,0,0,0,0,0,0],"split_type":[0,0,0,0,0,0,0,0,0,0,0,0,0,0,0,0,0,0,0,0,0,0,0,0,0,0,0,0,0,0,0,0,0,0,0,0,0,0,0,0,0,0,0,0,0,0,0,0,0,0,0,0,0,0,0,0,0,0,0,0,0,0,0,0,0,0,0,0,0,0,0,0,0,0,0,0,0,0,0,0,0,0,0,0,0,0,0,0,0,0,0,0,0,0,0,0,0,0,0,0,0,0,0,0,0,0,0,0,0,0,0,0,0],"sum_hessian":[1.5229398E4,1.3782941E4,1.4464565E3,1.1286779E4,2.4961624E3,3.4939185E2,1.0970647E3,7.4034727E3,3.8833064E3,2.2124763E3,2.8368604E2,2.03835E2,1.4555685E2,4.234311E1,1.0547217E3,6.319996E3,1.0834766E3,3.123161E2,3.5709905E3,2.1751968E3,3.7279594E1,2.8898674E1,2.5478735E2,1.7009348E2,3.3741528E1,1.435941E2,1.9627445E0,2.9862581E1,1.2480528E1,7.8926263E2,2.6545898E2,2.3846746E3,3.9353215E3,2.5385411E2,8.2962244E2,2.9245905E2,1.9857061E1,3.436996E3,1.3399423E2,2.1421846E3,3.3012142E1,1.2502264E1,2.477733E1,4.527686E0,2.4370989E1,1.9544505E2,5.93423E1,6.9025154E1,1.0106832E2,1.174992E1,2.1991608E1,3.0307958E0,1.4056331E2,2.5753635E1,4.1089444E0,9.077972E0,3.4025557E0,6.0534326E2,1.8391939E2,1.2604415E2,1.3941483E2,2.327196E3,5.747853E1,2.276768E3,1.6585536E3,2.4052995E2,1.3324158E1,7.1545844E2,1.1416403E2,1.8687311E1,2.7377173E2,1.5343453E1,4.5136075E0,3.25393E3,1.8306628E2,1.3284084E2,1.1533835E0,2.1064482E3,3.573628E1,1.6860933E1,1.6151209E1,1.1499712E1,1.0025522E0,1.0607752E1,1.41695795E1,1.5488946E0,2.2822094E1,1.8418547E2,1.125959E1,2.6912245E1,3.2430054E1,6.6768486E1,2.2566679E0,8.56619E1,1.5406418E1,1.0605599E1,1.1443201E0,1.2457229E1,9.534379E0,1.4967507E0,1.5340452E0,2.460917E1,1.1444659E0,8.0295725E0,1.0484002E0,5.665253E2,3.8817936E1,1.7773389E2,6.1855116E0,1.0701373E2,1.9030418E1,5.1344524E1,8.80703E1],"tree_param":{"num_deleted":"0","num_feature":"1764","num_nodes":"113","size_leaf_vector":"1"}},{"base_weights":[-1.8218783E-1,2.9298168E-2,-2.444761E-1,-4.5740777E-1,1.1042807E-1,-4.127939E-1,-1.0978605E-1,-5.8301497E-1,1.1446536E-1,1.5127465E-1,-6.1281973E-1,-4.4520146E-1,1.455302E-1,-3.3534166E-1,4.7525067E-2,-6.057417E-1,5.902534E-1,-3.753576E-1,5.573295E-1,1.9985712E-1,-3.6758927E-1,-1.8751326E-1,1.23325236E-1,-4.702495E-1,1.5428784E-1,3.79575E-1,-5.735199E-1,-4.0794602E-1,1.7455901E-1,1.3095492E-1,-2.4721545E-1,-6.1537325E-1,7.154628E-1,-1.4913148E-1,3.899089E-1,-4.600547E-1,3.52026E-1,8.1356126E-1,-4.3205938E-1,1.8351315E-1,1.5075778E0,-5.959262E-1,3.2945624E-1,-5.151976E-1,-1.5798599E-1,8.2481705E-2,1.0852666E0,6.106582E-1,-4.0737677E-1,-6.146722E-1,3.0403954E-1,-5.274317E-1,-1.7144645E-2,8.379277E-2,1.4077432E0,9.473554E-2,7.2305715E-1,-5.560503E-1,-2.2311112E-2,2.1541257E-1,-1.867925E-1,2.6869165E-2,3.0410498E-1,-1.7072442E-1,1.253474E-1,3.2442945E-1,-4.8933E-2,1.7442189E-1,-1.8514632E-1,6.1137594E-2,-1.2227219E-1,5.048119E-1,-1.3637699E-1,-1.8361928E-1,3.166842E-1,2.1080002E-1,-1.3203019E-1,-1.7329963E-1,-8.951537E-2,-1.5910095E-1,3.268085E-2,-6.8362704E-3,2.172897E-1,4.5280102E-1,-1.3768809E-1,6.525476E-2,4.0590286E-1,-1.4469239E-1,3.720845E-1,-1.930636E-1,-3.3808514E-2,-1.7397201E-1,-2.4609612E-3,-1.1874323E-1,6.0618278E-2,-1.1419182E-1,8.686817E-2,-1.2549856E-1,4.7453076E-1,3.589425E-2,-1.7745985E-1,2.647909E-1,-1.5367045E-1,6.140367E-2,-1.7923218E-1,3.9905276E-2,-1.5167898E-1],"categories":[],"categories_nodes":[],"categories_segments":[],"categories_sizes":[],"default_left":[0,0,0,0,0,0,0,0,0,0,0,0,0,0,0,0,0,0,0,0,0,0,0,0,0,0,0,0,0,0,0,0,0,0,0,0,0,0,0,0,0,0,0,0,0,0,0,0,0,0,0,0,0,0,0,0,0,0,0,0,0,0,0,0,0,0,0,0,0,0,0,0,0,0,0,0,0,0,0,0,0,0,0,0,0,0,0,0,0,0,0,0,0,0,0,0,0,0,0,0,0,0,0,0,0,0,0],"id":5,"left_children":[1,3,5,7,9,11,13,15,17,19,21,23,25,27,29,31,33,35,37,39,41,-1,-1,43,45,47,49,51,53,55,57,59,61,-1,-1,63,-1,65,67,69,71,73,75,77,79,81,83,85,87,89,-1,91,93,95,97,99,101,103,105,-1,-1,-1,-1,-1,-1,-1,-1,-1,-1,-1,-1,-1,-1,-1,-1,-1,-1,-1,-1,-1,-1,-1,-1,-1,-1,-1,-1,-1,-1,-1,-1,-1,-1,-1,-1,-1,-1,-1,-1,-1,-1,-1,-1,-1,-1,-1,-1],"loss_changes":[2.0054477E2,1.3684897E2,2.6655865E2,3.563613E1,8.784088E1,9.464166E1,2.3185193E2,1.1187836E1,1.973489E1,7.096467E1,2.2468605E0,7.4259094E1,4.8602226E1,9.946237E1,9.470708E1,5.5169525E0,6.990711E0,6.224685E0,1.2437486E1,5.469896E1,3.857467E1,0E0,0E0,6.648401E1,1.3206884E1,3.980284E1,5.259777E0,1.0974313E2,3.7415863E1,6.429761E1,5.9008743E1,4.290756E0,5.34443E-1,0E0,0E0,4.2393637E0,0E0,1.0173986E1,2.3209774E0,3.0547417E1,1.1627655E1,5.4965057E0,1.7582478E1,5.5972046E1,5.951254E1,1.2565689E1,9.965717E0,4.8892845E1,6.767764E0,9.395256E-1,0E0,4.9039E1,4.584832E1,3.0060602E1,7.9471703E0,4.8444836E1,3.4527885E1,1.1395035E1,3.7054794E1,0E0,0E0,0E0,0E0,0E0,0E0,0E0,0E0,0E0,0E0,0E0,0E0,0E0,0E0,0E0,0E0,0E0,0E0,0E0,0E0,0E0,0E0,0E0,0E0,0E0,0E0,0E0,0E0,0E0,0E0,0E0,0E0,0E0,0E0,0E0,0E0,0E0,0E0,0E0,0E0,0E0,0E0,0E0,0E0,0E0,0E0,0E0,0E0],"parents":[2147483647,0,0,1,1,2,2,3,3,4,4,5,5,6,6,7,7,8,8,9,9,10,10,11,11,12,12,13,13,14,14,15,15,16,16,17,17,18,18,19,19,20,20,23,23,24,24,25,25,26,26,27,27,28,28,29,29,30,30,31,31,32,32,35,35,37,37,38,38,39,39,40,40,41,41,42,42,43,43,44,44,45,45,46,46,47,47,48,48,49,49,51,51,52,52,53,53,54,54,55,55,56,56,57,57,58,58],"right_children":[2,4,6,8,10,12,14,16,18,20,22,24,26,28,30,32,34,36,38,40,42,-1,-1,44,46,48,50,52,54,56,58,60,62,-1,-1,64,-1,66,68,70,72,74,76,78,80,82,84,86,88,90,-1,92,94,96,98,100,102,104,106,-1,-1,-1,-1,-1,-1,-1,-1,-1,-1,-1,-1,-1,-1,-1,-1,-1,-1,-1,-1,-1,-1,-1,-1,-1,-1,-1,-1,-1,-1,-1,-1,-1,-1,-1,-1,-1,-1,-1,-1,-1,-1,-1,-1,-1,-1,-1,-1],"split_conditions":[5.907507E-2,6.430213E-2,1.7732213E-1,1.2731399E-1,2.3979859E-1,2.875307E-1,1.8956973E-1,2.6187965E-1,1.7953153E-1,2.7961448E-1,7.709134E-2,2.5179803E-1,2.8604817E-1,2.8491935E-1,2.292769E-1,2.2606592E-1,2.4547252E-1,2.463723E-1,2.2444211E-1,3.2353383E-1,1.9577056E-1,-1.8751326E-1,1.23325236E-1,2.28614E-1,1.3139899E-1,2.7119622E-1,4.327969E-1,1.9011828E-1,2.3438498E-1,2.7936903E-1,1.5607378E-1,7.731433E-2,6.735354E-2,-1.4913148E-1,3.899089E-1,1.8932106E-1,3.52026E-1,1.4750469E-1,1.4230981E-1,2.2673106E-1,2.242843E-1,2.7081525E-1,1.4433262E-1,2.623957E-1,1.4337324E-1,3.923169E-1,2.4202934E-1,2.6541767E-1,2.8435263E-1,1.8076035E-1,3.0403954E-1,2.8872758E-1,1.23700425E-1,9.922981E-2,2.2304883E-2,2.5470653E-1,2.760237E-1,7.147451E-2,1.444648E-1,2.1541257E-1,-1.867925E-1,2.6869165E-2,3.0410498E-1,-1.7072442E-1,1.253474E-1,3.2442945E-1,-4.8933E-2,1.7442189E-1,-1.8514632E-1,6.1137594E-2,-1.2227219E-1,5.048119E-1,-1.3637699E-1,-1.8361928E-1,3.166842E-1,2.1080002E-1,-1.3203019E-1,-1.7329963E-1,-8.951537E-2,-1.5910095E-1,3.268085E-2,-6.8362704E-3,2.172897E-1,4.5280102E-1,-1.3768809E-1,6.525476E-2,4.0590286E-1,-1.4469239E-1,3.720845E-1,-1.930636E-1,-3.3808514E-2,-1.7397201E-1,-2.4609612E-3,-1.1874323E-1,6.0618278E-2,-1.1419182E-1,8.686817E-2,-1.2549856E-1,4.7453076E-1,3.589425E-2,-1.7745985E-1,2.647909E-1,-1.5367045E-1,6.140367E-2,-1.7923218E-1,3.9905276E-2,-1.5167898E-1],"split_indices":[367,616,674,354,1081,384,603,771,902,1663,1654,391,1704,105,620,1097,1584,1116,1157,1416,637,0,0,1097,1166,1578,94,805,346,375,1186,1656,12,0,0,1318,0,424,1144,169,870,20,760,523,666,202,1218,1150,1214,1734,0,1251,1069,1455,267,1168,1243,165,1061,0,0,0,0,0,0,0,0,0,0,0,0,0,0,0,0,0,0,0,0,0,0,0,0,0,0,0,0,0,0,0,0,0,0,0,0,0,0,0,0,0,0,0,0,0,0,0,0],"split_type":[0,0,0,0,0,0,0,0,0,0,0,0,0,0,0,0,0,0,0,0,0,0,0,0,0,0,0,0,0,0,0,0,0,0,0,0,0,0,0,0,0,0,0,0,0,0,0,0,0,0,0,0,0,0,0,0,0,0,0,0,0,0,0,0,0,0,0,0,0,0,0,0,0,0,0,0,0,0,0,0,0,0,0,0,0,0,0,0,0,0,0,0,0,0,0,0,0,0,0,0,0,0,0,0,0,0,0],"sum_hessian":[1.5222272E4,3.4634448E3,1.1758828E4,4.941792E2,2.9692656E3,5.2259995E3,6.5328286E3,4.0516794E2,8.901125E1,2.8112847E3,1.5798099E2,4.9394927E3,2.86507E2,2.6837236E3,3.849105E3,3.979433E2,7.2246213E0,4.2337242E1,4.6674015E1,2.571156E3,2.4012866E2,1.5650204E2,1.4789405E0,4.7415938E3,1.9789899E2,2.1650768E2,6.999933E1,2.349395E3,3.3432855E2,3.0003696E3,8.487351E2,3.9559366E2,2.3496547E0,2.9707205E0,4.2539005E0,4.0808525E1,1.5287161E0,3.721404E1,9.459974E0,2.5405444E3,3.0611563E1,1.8098648E2,5.9142178E1,4.1443887E3,5.97205E2,1.8473874E2,1.3160254E1,1.6753587E2,4.8971794E1,6.882724E1,1.172087E0,1.7990072E3,5.503879E2,3.1240268E2,2.1925873E1,2.8285076E3,1.7186215E2,3.5701532E2,4.9171982E2,1.6145052E0,3.9397916E2,1.1778772E0,1.1717774E0,3.661317E1,4.195353E0,2.9120062E1,8.093978E0,1.1302577E0,8.329717E0,2.4569087E3,8.363562E1,2.8234032E1,2.3775322E0,1.798584E2,1.1280844E0,3.9885773E1,1.9256405E1,3.2161057E3,9.2828284E2,2.4894516E2,3.4825986E2,1.5953645E2,2.5202278E1,1.03426E1,2.8176537E0,1.1037519E2,5.7160683E1,4.7518074E1,1.4537203E0,6.481702E1,4.010226E0,1.6337758E3,1.6523155E2,2.0150056E2,3.488873E2,9.565434E1,2.1674832E2,1.7855952E0,2.0140276E1,2.7302244E3,9.828312E1,1.5245322E2,1.9408932E1,1.8218815E1,3.387965E2,3.726684E2,1.1905143E2],"tree_param":{"num_deleted":"0","num_feature":"1764","num_nodes":"107","size_leaf_vector":"1"}},{"base_weights":[-1.8017913E-1,-2.8489795E-1,-7.688408E-2,-5.0989395E-1,-1.9239599E-1,2.9931827E-2,-3.2414827E-1,-5.3716344E-1,5.4675037E-1,-8.680373E-2,-4.381206E-1,9.255298E-2,-2.673742E-1,-4.977997E-1,2.027628E-1,-5.712413E-1,4.5616668E-2,-6.862874E-2,1.5224439E0,-3.4866277E-3,-6.0140884E-1,-5.575997E-1,2.0480324E-1,1.1853932E-1,-5.518855E-1,-5.326538E-1,5.043537E-2,-5.585919E-1,2.307364E-1,9.8912376E-1,1.6596581E-1,-5.8384144E-1,3.0066422E-1,5.2156484E-1,-5.6001866E-1,1.2747442E0,-4.2051482E-1,-1.3861218E-1,5.326784E-1,-3.8485926E-1,5.5687204E-2,4.2296967E-1,-6.32494E-1,-5.929501E-1,4.9439856E-1,-3.054285E-1,5.494556E-1,1.7681763E-1,-1.2857519E-1,-5.8534354E-1,3.3557677E-1,-5.718018E-1,3.6337188E-1,-5.128522E-2,1.2504373E0,-5.9806114E-1,3.4619805E-1,1.0507212E0,3.6330782E-2,-1.627433E-1,1.2916274E0,2.4047022E-1,-1.8441904E-1,-1.7763025E-1,2.0561558E-1,-8.923884E-2,3.4570414E-1,-1.5155686E-1,3.9381438E-1,2.8803474E-1,-1.9026592E-1,-1.06203705E-1,4.9946564E-1,-1.7712167E-1,4.014331E-1,-1.7096137E-1,2.998193E-3,-1.6701761E-1,2.7668655E-2,-1.908933E-1,1.7980693E-1,-1.803575E-1,5.343358E-1,-1.01049535E-1,4.542081E-1,1.2486808E-1,-1.2080988E-1,-7.155937E-2,2.2534038E-1,4.94853E-2,4.1184542E-1,6.6990275E-3,-1.5998092E-1,2.7462205E-1,-1.8246296E-1,-1.7634577E-1,4.3139124E-1,3.431217E-1,-8.977783E-2,-7.0805915E-2,1.2593839E-1,4.5730695E-1,4.7805715E-2,-1.8504415E-1,6.2889636E-2,-5.3077884E-2,2.6279214E-1,4.440187E-1,-1.2486511E-1,2.3612252E-1,-5.7569657E-2,4.3354312E-1,-1.2426238E-1,9.4458E-2,-6.721166E-2,2.2278218E-1,-8.7431855E-2],"categories":[],"categories_nodes":[],"categories_segments":[],"categories_sizes":[],"default_left":[0,0,0,0,0,0,0,0,0,0,0,0,0,0,0,0,0,0,0,0,0,0,0,0,0,0,0,0,0,0,0,0,0,0,0,0,0,0,0,0,0,0,0,0,0,0,0,0,0,0,0,0,0,0,0,0,0,0,0,0,0,0,0,0,0,0,0,0,0,0,0,0,0,0,0,0,0,0,0,0,0,0,0,0,0,0,0,0,0,0,0,0,0,0,0,0,0,0,0,0,0,0,0,0,0,0,0,0,0,0,0,0,0,0,0,0,0],"id":6,"left_children":[1,3,5,7,9,11,13,15,17,19,21,23,25,27,29,31,33,35,37,39,41,43,45,47,49,51,53,55,57,59,61,63,65,67,69,71,73,-1,-1,75,77,-1,79,81,83,85,87,89,91,93,-1,95,97,99,101,103,105,107,109,-1,111,113,115,-1,-1,-1,-1,-1,-1,-1,-1,-1,-1,-1,-1,-1,-1,-1,-1,-1,-1,-1,-1,-1,-1,-1,-1,-1,-1,-1,-1,-1,-1,-1,-1,-1,-1,-1,-1,-1,-1,-1,-1,-1,-1,-1,-1,-1,-1,-1,-1,-1,-1,-1,-1,-1,-1],"loss_changes":[1.6470383E2,1.572818E2,2.0252808E2,6.375647E1,1.3904305E2,9.973183E1,2.117583E2,4.267682E1,3.3671925E1,1.6079922E2,1.2385275E2,7.416057E1,7.8604385E1,7.7197784E1,1.6447811E1,2.2466614E1,3.4757618E1,1.7194685E1,1.1704868E1,7.288749E1,3.3565384E1,5.082025E1,4.4688957E1,6.1283695E1,1.024979E1,1.803006E1,5.1934795E1,5.75737E1,2.1438753E1,1.2497555E1,1.4392749E1,2.1376465E1,1.5403254E1,5.54702E1,6.598114E0,5.395216E0,9.358111E0,0E0,0E0,3.1697441E1,6.2622143E1,0E0,2.8044891E0,2.6799194E1,3.8409332E1,7.377549E0,2.4249565E1,4.8630943E1,4.9621796E1,6.3548965E0,0E0,1.6528946E1,1.1656641E1,3.4273464E1,9.69323E0,2.3449036E1,1.8939278E1,1.685553E1,1.8988974E1,0E0,6.2441025E0,1.5747757E1,9.834412E0,0E0,0E0,0E0,0E0,0E0,0E0,0E0,0E0,0E0,0E0,0E0,0E0,0E0,0E0,0E0,0E0,0E0,0E0,0E0,0E0,0E0,0E0,0E0,0E0,0E0,0E0,0E0,0E0,0E0,0E0,0E0,0E0,0E0,0E0,0E0,0E0,0E0,0E0,0E0,0E0,0E0,0E0,0E0,0E0,0E0,0E0,0E0,0E0,0E0,0E0,0E0,0E0,0E0,0E0],"parents":[2147483647,0,0,1,1,2,2,3,3,4,4,5,5,6,6,7,7,8,8,9,9,10,10,11,11,12,12,13,13,14,14,15,15,16,16,17,17,18,18,19,19,20,20,21,21,22,22,23,23,24,24,25,25,26,26,27,27,28,28,29,29,30,30,31,31,32,32,33,33,34,34,35,35,36,36,39,39,40,40,42,42,43,43,44,44,45,45,46,46,47,47,48,48,49,49,51,51,52,52,53,53,54,54,55,55,56,56,57,57,58,58,60,60,61,61,62,62],"right_children":[2,4,6,8,10,12,14,16,18,20,22,24,26,28,30,32,34,36,38,40,42,44,46,48,50,52,54,56,58,60,62,64,66,68,70,72,74,-1,-1,76,78,-1,80,82,84,86,88,90,92,94,-1,96,98,100,102,104,106,108,110,-1,112,114,116,-1,-1,-1,-1,-1,-1,-1,-1,-1,-1,-1,-1,-1,-1,-1,-1,-1,-1,-1,-1,-1,-1,-1,-1,-1,-1,-1,-1,-1,-1,-1,-1,-1,-1,-1,-1,-1,-1,-1,-1,-1,-1,-1,-1,-1,-1,-1,-1,-1,-1,-1,-1,-1,-1],"split_conditions":[1.5567589E-1,1.0513363E-1,1.9738999E-1,3.1401968E-1,2.2348036E-1,2.4737678E-1,3.4509474E-1,1.959532E-1,1.9756289E-1,2.6486945E-1,2.6177016E-1,2.7492115E-1,1.2727343E-1,2.4490845E-1,3.6225904E-2,3.2504278E-1,2.6122886E-1,2.0101938E-1,7.121341E-2,8.4960654E-2,8.147079E-2,3.6303264E-1,8.5967176E-2,2.1822718E-1,2.246921E-1,1.5953253E-1,2.1362375E-1,2.6833573E-1,6.2561214E-2,6.564436E-2,2.9929784E-1,2.578041E-1,9.8160945E-2,7.051324E-2,1.4633973E-1,3.4113925E-2,5.750829E-2,-1.3861218E-1,5.326784E-1,2.1485768E-1,7.1171075E-2,4.2296967E-1,2.6064456E-1,3.0839837E-1,5.4636844E-2,3.898719E-2,8.167763E-2,2.579294E-1,2.165546E-1,7.9099916E-2,3.3557677E-1,2.5313812E-1,1.3397299E-1,2.2073412E-1,1.23240225E-1,2.4696495E-1,1.12043336E-1,2.1757749E-1,4.227817E-2,-1.627433E-1,1.4465844E-2,2.27344E-1,3.4745265E-2,-1.7763025E-1,2.0561558E-1,-8.923884E-2,3.4570414E-1,-1.5155686E-1,3.9381438E-1,2.8803474E-1,-1.9026592E-1,-1.06203705E-1,4.9946564E-1,-1.7712167E-1,4.014331E-1,-1.7096137E-1,2.998193E-3,-1.6701761E-1,2.7668655E-2,-1.908933E-1,1.7980693E-1,-1.803575E-1,5.343358E-1,-1.01049535E-1,4.542081E-1,1.2486808E-1,-1.2080988E-1,-7.155937E-2,2.2534038E-1,4.94853E-2,4.1184542E-1,6.6990275E-3,-1.5998092E-1,2.7462205E-1,-1.8246296E-1,-1.7634577E-1,4.3139124E-1,3.431217E-1,-8.977783E-2,-7.0805915E-2,1.2593839E-1,4.5730695E-1,4.7805715E-2,-1.8504415E-1,6.2889636E-2,-5.3077884E-2,2.6279214E-1,4.440187E-1,-1.2486511E-1,2.3612252E-1,-5.7569657E-2,4.3354312E-1,-1.2426238E-1,9.4458E-2,-6.721166E-2,2.2278218E-1,-8.7431855E-2],"split_indices":[420,614,1094,1015,1127,132,113,616,526,1670,686,159,680,1117,1091,522,1680,100,364,1071,1481,270,1234,1318,643,1261,1591,1114,1097,1055,1313,1196,48,72,1160,984,95,0,0,568,603,0,716,1679,120,897,400,1323,1471,861,0,1010,1656,11,643,1373,776,1561,1258,0,8,1697,1407,0,0,0,0,0,0,0,0,0,0,0,0,0,0,0,0,0,0,0,0,0,0,0,0,0,0,0,0,0,0,0,0,0,0,0,0,0,0,0,0,0,0,0,0,0,0,0,0,0,0,0,0,0,0],"split_type":[0,0,0,0,0,0,0,0,0,0,0,0,0,0,0,0,0,0,0,0,0,0,0,0,0,0,0,0,0,0,0,0,0,0,0,0,0,0,0,0,0,0,0,0,0,0,0,0,0,0,0,0,0,0,0,0,0,0,0,0,0,0,0,0,0,0,0,0,0,0,0,0,0,0,0,0,0,0,0,0,0,0,0,0,0,0,0,0,0,0,0,0,0,0,0,0,0,0,0,0,0,0,0,0,0,0,0,0,0,0,0,0,0,0,0,0,0],"sum_hessian":[1.5227506E4,7.560767E3,7.666739E3,2.2014893E3,5.359278E3,5.354515E3,2.3122236E3,2.1465828E3,5.4906475E1,3.7494326E3,1.6098448E3,4.42349E3,9.310249E2,1.7391243E3,5.730993E2,2.028015E3,1.1856778E2,3.42404E1,2.0666079E1,3.2278367E3,5.215959E2,1.3576719E3,2.521731E2,4.2528154E3,1.706745E2,5.0708157E2,4.2394333E2,1.6053964E3,1.337279E2,2.446189E1,5.486374E2,1.9994508E3,2.856428E1,6.647005E1,5.2097733E1,6.562927E0,2.7677471E1,2.244666E0,1.8421413E1,4.3282108E2,2.7950156E3,7.2635717E0,5.1433234E2,1.3139552E3,4.371658E1,1.0171118E2,1.5046191E2,3.4414783E3,8.113374E2,1.6796002E2,2.7144885E0,4.8620096E2,2.0880602E1,3.9169757E2,3.2245773E1,1.538617E3,6.6779434E1,2.4784483E1,1.0894342E2,3.903723E0,2.0558167E1,4.526924E2,9.594497E1,1.9870537E3,1.2397032E1,1.71622E1,1.140208E1,2.9084988E1,3.7385056E1,1.8689874E0,5.0228745E1,1.2861459E0,5.2767806E0,2.5845013E1,1.8324583E0,2.9442322E2,1.3839784E2,1.5658159E2,2.638434E3,5.1322546E2,1.1068488E0,1.3101538E3,3.8014112E0,2.4452145E1,1.9264437E1,1.16916485E1,9.001954E1,3.0624634E1,1.1983727E2,3.4087944E3,3.268392E1,5.9166E2,2.1967743E2,1.9349269E0,1.6602509E2,4.8305862E2,3.1423464E0,9.255056E0,1.16255455E1,2.8171982E2,1.09977745E2,2.5457508E1,6.7882648E0,1.5039355E3,3.4681423E1,3.393577E1,3.2843666E1,1.9166048E1,5.618435E0,2.4827293E1,8.411613E1,1.9001E1,1.5571675E0,3.9048032E2,6.221212E1,9.315332E0,8.662964E1],"tree_param":{"num_deleted":"0","num_feature":"1764","num_nodes":"117","size_leaf_vector":"1"}},{"base_weights":[4.6255156E-1,-1.3280171E-1,5.5994546E-1,5.019112E-1,-5.5232227E-1,1.0196693E0,4.35897E-1,9.470926E-1,-6.12198E-1,-5.968134E-1,7.1163076E-1,1.0853535E0,-6.079772E-1,5.3906155E-1,-1.5264304E-1,1.0885558E0,-4.866569E-1,-1.9233231E-1,3.1794322E-1,-6.237652E-1,8.603358E-1,-1.9003733E-1,1.164806E0,1.2332425E0,6.3373506E-1,-1.928903E-1,2.5146717E-1,5.8656245E-1,-5.988494E-1,4.9157307E-1,-6.109252E-1,1.1654953E0,-5.8201635E-1,3.1557828E-1,-1.9326717E-1,-6.35675E-1,5.7295454E-1,4.0318224E-1,-1.7645556E-1,3.7418756E-1,-1.3509546E-1,1.2438766E0,-1.02896705E-1,8.864618E-1,-4.9643353E-1,8.158918E-1,3.611871E-1,-1.9094728E-1,3.4776556E-1,-4.1605968E-2,1.2671347E0,-6.495941E-1,3.5470665E-1,3.6956504E-1,-1.254224E-1,-1.8366216E-1,3.2858934E-2,-1.9211105E-1,3.5764253E-1,-1.6010194E-1,3.2550082E-1,3.7545422E-1,-1.8381669E-1,-1.8784888E-1,3.595233E-1,3.1117323E-1,-1.672423E-1,-1.833308E-1,3.671053E-1,2.796777E-1,-5.7272974E-2,1.2279291E-2,1.8799868E-1,-1.214501E-1,2.5328556E-1,3.9349452E-1,-1.692248E-1,1.4991195E-1,-2.0006049E-1],"categories":[],"categories_nodes":[],"categories_segments":[],"categories_sizes":[],"default_left":[0,0,0,0,0,0,0,0,0,0,0,0,0,0,0,0,0,0,0,0,0,0,0,0,0,0,0,0,0,0,0,0,0,0,0,0,0,0,0,0,0,0,0,0,0,0,0,0,0,0,0,0,0,0,0,0,0,0,0,0,0,0,0,0,0,0,0,0,0,0,0,0,0,0,0,0,0,0,0],"id":7,"left_children":[1,3,5,7,9,11,13,15,17,19,21,23,25,27,29,31,33,-1,-1,35,37,-1,39,41,43,-1,-1,45,47,49,51,53,55,-1,-1,57,59,-1,-1,-1,-1,61,63,65,67,69,71,-1,-1,73,75,77,-1,-1,-1,-1,-1,-1,-1,-1,-1,-1,-1,-1,-1,-1,-1,-1,-1,-1,-1,-1,-1,-1,-1,-1,-1,-1,-1],"loss_changes":[1.0369199E3,6.699067E2,8.759531E2,4.971864E2,8.559454E1,3.4970557E2,7.349949E2,1.4570862E2,1.4526627E1,5.8015686E1,3.2407707E1,2.0884058E2,6.9799194E0,5.5702905E2,5.335012E2,8.4458496E1,1.6429161E1,0E0,0E0,2.085376E1,1.9703978E1,0E0,5.786007E0,3.3706543E1,2.2216644E2,0E0,0E0,5.1070557E2,2.8081009E1,3.1071692E2,7.397861E1,6.6058716E1,6.8015194E-1,0E0,0E0,1.2983032E1,8.904152E0,0E0,0E0,0E0,0E0,3.401367E1,1.4085592E1,1.387825E2,2.8856926E1,5.74209E2,4.2406903E2,0E0,0E0,1.4391298E2,2.5691528E1,2.08638E1,0E0,0E0,0E0,0E0,0E0,0E0,0E0,0E0,0E0,0E0,0E0,0E0,0E0,0E0,0E0,0E0,0E0,0E0,0E0,0E0,0E0,0E0,0E0,0E0,0E0,0E0,0E0],"parents":[2147483647,0,0,1,1,2,2,3,3,4,4,5,5,6,6,7,7,8,8,9,9,10,10,11,11,12,12,13,13,14,14,15,15,16,16,19,19,20,20,22,22,23,23,24,24,27,27,28,28,29,29,30,30,31,31,32,32,35,35,36,36,41,41,42,42,43,43,44,44,45,45,46,46,49,49,50,50,51,51],"right_children":[2,4,6,8,10,12,14,16,18,20,22,24,26,28,30,32,34,-1,-1,36,38,-1,40,42,44,-1,-1,46,48,50,52,54,56,-1,-1,58,60,-1,-1,-1,-1,62,64,66,68,70,72,-1,-1,74,76,78,-1,-1,-1,-1,-1,-1,-1,-1,-1,-1,-1,-1,-1,-1,-1,-1,-1,-1,-1,-1,-1,-1,-1,-1,-1,-1,-1],"split_conditions":[4.8850097E-2,1.0644672E-1,1.0130066E-1,2.7938136E-1,2.231296E-1,2.7790016E-1,2.8598762E-1,3.9935344E-1,1.826058E-1,9.804139E-2,4.7714427E-2,1.5750405E-1,2.2908926E-1,3.3728907E-1,2.6741898E-1,2.3390494E-1,1.2736851E-1,-1.9233231E-1,3.1794322E-1,1.9893317E-1,2.0272088E-1,-1.9003733E-1,2.1828537E-1,2.9891473E-1,2.7187604E-1,-1.928903E-1,2.5146717E-1,1.4689374E-1,2.3070264E-1,2.1976851E-1,2.403551E-1,2.676388E-1,2.2335635E-1,3.1557828E-1,-1.9326717E-1,3.3645272E-1,1.22903824E-1,4.0318224E-1,-1.7645556E-1,3.7418756E-1,-1.3509546E-1,2.8187257E-1,1.9531545E-1,2.6990867E-1,2.2131951E-1,2.600896E-1,1.7349862E-1,-1.9094728E-1,3.4776556E-1,2.2915472E-1,1.7538054E-1,7.0151605E-2,3.5470665E-1,3.6956504E-1,-1.254224E-1,-1.8366216E-1,3.2858934E-2,-1.9211105E-1,3.5764253E-1,-1.6010194E-1,3.2550082E-1,3.7545422E-1,-1.8381669E-1,-1.8784888E-1,3.595233E-1,3.1117323E-1,-1.672423E-1,-1.833308E-1,3.671053E-1,2.796777E-1,-5.7272974E-2,1.2279291E-2,1.8799868E-1,-1.214501E-1,2.5328556E-1,3.9349452E-1,-1.692248E-1,1.4991195E-1,-2.0006049E-1],"split_indices":[368,903,906,1651,397,1157,755,1668,142,107,367,864,23,438,782,670,1206,0,0,661,1106,0,742,514,504,0,0,353,677,1438,826,770,899,0,0,1621,825,0,0,0,0,354,392,737,1379,781,1095,0,0,1069,832,1170,0,0,0,0,0,0,0,0,0,0,0,0,0,0,0,0,0,0,0,0,0,0,0,0,0,0,0],"split_type":[0,0,0,0,0,0,0,0,0,0,0,0,0,0,0,0,0,0,0,0,0,0,0,0,0,0,0,0,0,0,0,0,0,0,0,0,0,0,0,0,0,0,0,0,0,0,0,0,0,0,0,0,0,0,0,0,0,0,0,0,0,0,0,0,0,0,0,0,0,0,0,0,0,0,0,0,0,0,0],"sum_hessian":[1.7880645E4,2.513803E3,1.5366841E4,1.00026196E3,1.5135411E3,3.2638364E3,1.2103005E4,7.1479175E2,2.8547018E2,1.4625859E3,5.0955208E1,3.1375525E3,1.26283775E2,1.0297969E4,1.8050359E3,6.508185E2,6.3973324E1,2.8122427E2,4.245911E0,1.4365864E3,2.5999529E1,1.2740822E1,3.8214386E1,2.3622642E3,7.752883E2,1.2384284E2,2.440934E0,9.885782E3,4.1218704E2,7.5028E2,1.0547559E3,6.2245325E2,2.8365181E1,5.415626E0,5.8557697E1,1.4228945E3,1.3691898E1,1.9546057E1,6.4534717E0,3.657425E1,1.6401366E0,2.3436804E3,1.8583784E1,6.337792E2,1.4150916E2,4.89861E3,4.987172E3,4.0417142E2,8.015635E0,4.4517786E2,3.0510217E2,1.0331163E3,2.1639559E1,5.976212E2,2.4832047E1,2.728857E1,1.0766104E0,1.4198969E3,2.997661E0,4.3179035E0,9.373995E0,2.3344033E3,9.277046E0,1.3624204E1,4.9595804E0,5.741097E2,5.9669487E1,1.3326967E2,8.239493E0,4.391151E3,5.074593E2,2.2608945E3,2.726277E3,3.1611096E2,1.2906688E2,2.9813867E2,6.9634967E0,1.4884434E1,1.0182319E3],"tree_param":{"num_deleted":"0","num_feature":"1764","num_nodes":"79","size_leaf_vector":"1"}},{"base_weights":[-1.4594893E-1,-2.6076517E-1,-6.0496386E-2,-5.05554E-1,-1.6909264E-1,3.0618286E-2,-2.9305002E-1,-5.577374E-1,1.3865163E-2,-5.005626E-1,-1.09544024E-1,-4.4151887E-1,6.1929017E-2,9.131703E-2,-4.7494382E-1,-5.695156E-1,5.456713E-1,-1.5260819E-1,9.445829E-1,-5.396555E-1,2.2512767E-1,-5.311219E-1,-4.0499613E-2,3.2953396E-1,-5.032704E-1,8.775191E-2,-4.943993E-1,1.5509887E-1,-5.840304E-1,-5.173757E-1,2.8706765E-1,-5.8034194E-1,3.416428E-1,1.1643324E0,-1.6047618E-1,-3.3881372E-1,7.4851906E-1,-3.6614093E-1,3.6927342E-1,-5.737677E-1,3.0246204E-2,1.0191684E0,-1.8000166E-1,-5.504536E-1,1.2234998E0,2.7236909E-2,-4.94606E-1,-4.8407564E-1,7.267894E-1,-5.3647983E-1,9.845308E-1,-2.0065427E-1,1.3445696E-1,-5.807901E-1,3.7023014E-1,-1.8667641E-1,2.0134144E-1,4.8667762E-2,-1.7958412E-1,-5.6107545E-1,4.113862E-2,1.0802805E0,-1.8225534E-2,-1.7714563E-1,3.31868E-2,3.2128543E-1,-7.3195584E-2,-1.0297951E-1,4.085755E-1,8.0279246E-2,-1.6496743E-1,3.9781663E-1,-1.6006758E-2,-1.5918681E-1,3.0400774E-2,-1.7746398E-1,2.2683911E-2,3.8097018E-1,-8.273643E-2,-1.3377395E-1,4.0208358E-1,-1.6727075E-1,1.3844673E-1,-1.6780145E-1,3.4944656E-1,2.5893033E-2,4.4294083E-1,3.720865E-2,-7.9003416E-2,1.531541E-1,-1.6658239E-1,-1.7234673E-1,4.5254383E-2,3.2873225E-1,-1.1340767E-1,-1.747611E-1,4.3707162E-2,3.4466457E-1,1.5314717E-2,4.3981623E-2,-1.4942576E-1,4.4500653E-2,-1.8083757E-1,-1.7684902E-1,1.611936E-1,-5.412824E-2,3.6502764E-1,3.229669E-2,2.2916375E-1,-1.7146118E-1,1.861821E-1,-1.4819762E-1,1.0546819E-1,-6.0164593E-2,4.2969072E-1,-4.4048764E-2,3.0915704E-1],"categories":[],"categories_nodes":[],"categories_segments":[],"categories_sizes":[],"default_left":[0,0,0,0,0,0,0,0,0,0,0,0,0,0,0,0,0,0,0,0,0,0,0,0,0,0,0,0,0,0,0,0,0,0,0,0,0,0,0,0,0,0,0,0,0,0,0,0,0,0,0,0,0,0,0,0,0,0,0,0,0,0,0,0,0,0,0,0,0,0,0,0,0,0,0,0,0,0,0,0,0,0,0,0,0,0,0,0,0,0,0,0,0,0,0,0,0,0,0,0,0,0,0,0,0,0,0,0,0,0,0,0,0,0,0,0,0],"id":8,"left_children":[1,3,5,7,9,11,13,15,17,19,21,23,25,27,29,31,33,35,37,39,41,43,45,47,49,51,53,55,57,59,61,63,65,67,-1,69,71,73,-1,75,77,79,81,83,85,87,89,91,93,95,97,99,101,103,105,-1,107,-1,-1,109,111,113,115,-1,-1,-1,-1,-1,-1,-1,-1,-1,-1,-1,-1,-1,-1,-1,-1,-1,-1,-1,-1,-1,-1,-1,-1,-1,-1,-1,-1,-1,-1,-1,-1,-1,-1,-1,-1,-1,-1,-1,-1,-1,-1,-1,-1,-1,-1,-1,-1,-1,-1,-1,-1,-1,-1],"loss_changes":[1.4074628E2,1.3728018E2,1.7432104E2,4.5200684E1,8.788109E1,8.7418396E1,1.6195796E2,2.0001617E1,2.3879549E1,1.9361008E1,1.0994253E2,1.7677254E1,7.970038E1,3.2170773E1,5.0982056E1,1.4991364E1,1.1662043E1,2.2202673E1,9.226013E0,1.25334015E1,1.1562143E1,1.8704147E1,9.989846E1,9.361279E0,1.7372047E1,7.141432E1,1.8598202E1,2.4615017E1,7.9880714E-1,3.6379303E1,2.0257118E1,1.0454987E1,8.051109E0,3.6892872E0,0E0,1.4111461E1,1.0589225E1,4.353717E-1,0E0,7.0584564E0,1.450462E1,6.290184E0,6.1360326E0,8.674576E0,1.6282597E0,7.953693E1,2.5989708E1,6.4609456E-1,8.212587E0,1.058223E1,1.1374035E0,7.6404724E1,4.6764328E1,2.498726E0,1.0925564E1,0E0,3.3846153E1,0E0,0E0,1.7434357E1,1.8284311E1,1.07665825E1,8.422751E0,0E0,0E0,0E0,0E0,0E0,0E0,0E0,0E0,0E0,0E0,0E0,0E0,0E0,0E0,0E0,0E0,0E0,0E0,0E0,0E0,0E0,0E0,0E0,0E0,0E0,0E0,0E0,0E0,0E0,0E0,0E0,0E0,0E0,0E0,0E0,0E0,0E0,0E0,0E0,0E0,0E0,0E0,0E0,0E0,0E0,0E0,0E0,0E0,0E0,0E0,0E0,0E0,0E0,0E0],"parents":[2147483647,0,0,1,1,2,2,3,3,4,4,5,5,6,6,7,7,8,8,9,9,10,10,11,11,12,12,13,13,14,14,15,15,16,16,17,17,18,18,19,19,20,20,21,21,22,22,23,23,24,24,25,25,26,26,27,27,28,28,29,29,30,30,31,31,32,32,33,33,35,35,36,36,37,37,39,39,40,40,41,41,42,42,43,43,44,44,45,45,46,46,47,47,48,48,49,49,50,50,51,51,52,52,53,53,54,54,56,56,59,59,60,60,61,61,62,62],"right_children":[2,4,6,8,10,12,14,16,18,20,22,24,26,28,30,32,34,36,38,40,42,44,46,48,50,52,54,56,58,60,62,64,66,68,-1,70,72,74,-1,76,78,80,82,84,86,88,90,92,94,96,98,100,102,104,106,-1,108,-1,-1,110,112,114,116,-1,-1,-1,-1,-1,-1,-1,-1,-1,-1,-1,-1,-1,-1,-1,-1,-1,-1,-1,-1,-1,-1,-1,-1,-1,-1,-1,-1,-1,-1,-1,-1,-1,-1,-1,-1,-1,-1,-1,-1,-1,-1,-1,-1,-1,-1,-1,-1,-1,-1,-1,-1,-1,-1],"split_conditions":[1.4207117E-1,1.03259556E-1,1.9099462E-1,1.7382261E-1,8.425827E-2,6.387606E-2,5.5899218E-2,3.2808638E-1,2.870461E-1,2.65257E-1,6.820156E-2,7.345901E-2,2.5012425E-1,1.8994115E-1,2.6055965E-1,3.3096585E-1,7.3634535E-2,1.1713996E-1,2.485652E-1,2.175101E-1,8.6982206E-2,4.4851714E-1,2.3041047E-1,1.550195E-1,2.949775E-1,1.21186264E-1,2.8814003E-1,3.6279165E-5,5.800289E-2,2.4738985E-1,6.61916E-2,2.5274265E-1,3.115083E-1,3.2054532E-2,-1.6047618E-1,9.8825954E-2,1.2201355E-1,5.916325E-2,3.6927342E-1,2.3269853E-1,8.8669546E-2,5.3323966E-2,1.486568E-1,2.8943232E-1,3.6612045E-2,2.1413875E-1,9.1532566E-2,2.4485874E-1,1.3272355E-1,1.4260513E-1,1.7107163E-1,1.16842695E-1,2.5348517E-1,2.5579846E-1,1.08183905E-1,-1.8667641E-1,4.6100026E-1,4.8667762E-2,-1.7958412E-1,2.812588E-1,8.442046E-2,1.5123561E-1,2.8371963E-1,-1.7714563E-1,3.31868E-2,3.2128543E-1,-7.3195584E-2,-1.0297951E-1,4.085755E-1,8.0279246E-2,-1.6496743E-1,3.9781663E-1,-1.6006758E-2,-1.5918681E-1,3.0400774E-2,-1.7746398E-1,2.2683911E-2,3.8097018E-1,-8.273643E-2,-1.3377395E-1,4.0208358E-1,-1.6727075E-1,1.3844673E-1,-1.6780145E-1,3.4944656E-1,2.5893033E-2,4.4294083E-1,3.720865E-2,-7.9003416E-2,1.531541E-1,-1.6658239E-1,-1.7234673E-1,4.5254383E-2,3.2873225E-1,-1.1340767E-1,-1.747611E-1,4.3707162E-2,3.4466457E-1,1.5314717E-2,4.3981623E-2,-1.4942576E-1,4.4500653E-2,-1.8083757E-1,-1.7684902E-1,1.611936E-1,-5.412824E-2,3.6502764E-1,3.229669E-2,2.2916375E-1,-1.7146118E-1,1.861821E-1,-1.4819762E-1,1.0546819E-1,-6.0164593E-2,4.2969072E-1,-4.4048764E-2,3.0915704E-1],"split_indices":[420,614,1094,616,1072,1102,397,502,1297,957,395,642,921,205,1346,270,1288,123,1679,372,1117,1668,683,612,1627,898,1093,121,903,310,1339,903,1637,334,0,708,1074,82,0,778,795,893,786,1630,121,593,1406,1375,1072,606,94,139,829,1758,603,0,1598,0,0,347,1749,1126,94,0,0,0,0,0,0,0,0,0,0,0,0,0,0,0,0,0,0,0,0,0,0,0,0,0,0,0,0,0,0,0,0,0,0,0,0,0,0,0,0,0,0,0,0,0,0,0,0,0,0,0,0,0,0],"split_type":[0,0,0,0,0,0,0,0,0,0,0,0,0,0,0,0,0,0,0,0,0,0,0,0,0,0,0,0,0,0,0,0,0,0,0,0,0,0,0,0,0,0,0,0,0,0,0,0,0,0,0,0,0,0,0,0,0,0,0,0,0,0,0,0,0,0,0,0,0,0,0,0,0,0,0,0,0,0,0,0,0,0,0,0,0,0,0,0,0,0,0,0,0,0,0,0,0,0,0,0,0,0,0,0,0,0,0,0,0,0,0,0,0,0,0,0,0],"sum_hessian":[1.4345872E4,6.120354E3,8.225518E3,1.6663263E3,4.454028E3,5.9106064E3,2.3149114E3,1.5141351E3,1.5219121E2,6.771806E2,3.7768472E3,3.667812E2,5.543825E3,7.4375366E2,1.5711577E3,1.4986222E3,1.5512917E1,1.298089E2,2.2382309E1,6.428089E2,3.4371696E1,5.3056726E2,3.24628E3,2.6874859E1,3.399063E2,5.2987188E3,2.4510649E2,6.802767E2,6.3477028E1,1.488588E3,8.2569626E1,1.4813834E3,1.7238697E1,9.81572E0,5.697197E0,1.080963E2,2.17126E1,3.9628515E0,1.8419456E1,6.0649927E2,3.63096E1,1.110013E1,2.3271566E1,5.254642E2,5.1030617E0,2.8257227E3,4.205573E2,8.745288E0,1.812957E1,3.3311032E2,6.795997E0,7.3803253E2,4.5606865E3,2.2313945E2,2.196704E1,3.74962E1,6.4278046E2,1.0226358E0,6.245439E1,1.3805642E3,1.0802386E2,2.2241983E1,6.032764E1,1.4600945E3,2.1288954E1,7.308444E0,9.930252E0,1.0519514E0,8.763768E0,2.7841595E1,8.02547E1,1.2241897E1,9.470703E0,2.8315077E0,1.131344E0,5.9042365E2,1.6075676E1,6.565435E0,2.9744167E1,1.925639E0,9.174491E0,1.4731657E1,8.53991E0,5.234269E2,2.0372763E0,1.172671E0,3.9303908E0,2.1200974E3,7.0562537E2,2.3517601E1,3.970397E2,7.738506E0,1.0067824E0,1.3596734E1,4.532837E0,3.1217938E2,2.0930935E1,5.582397E0,1.2136002E0,3.40729E2,3.9730353E2,4.4772026E3,8.348353E1,2.218844E2,1.2550421E0,1.3786158E1,8.180882E0,5.5203516E2,9.074532E1,1.3689607E3,1.16035E1,3.9440964E1,6.858289E1,4.887852E0,1.7354132E1,5.4504036E1,5.8236046E0],"tree_param":{"num_deleted":"0","num_feature":"1764","num_nodes":"117","size_leaf_vector":"1"}},{"base_weights":[-1.4794967E-1,-2.4256797E-1,-3.384076E-2,-2.8970443E-2,-3.4574047E-1,-1.8946838E-1,7.9339676E-2,-5.214873E-1,5.495657E-2,-3.9659044E-1,7.854312E-2,1.27652045E-2,-4.3937102E-1,1.6627763E-1,-1.4897491E-1,4.5471284E-1,-5.6766886E-1,1.0169459E-1,-4.9030042E-1,-4.4568112E-1,-6.5493725E-2,-4.984554E-1,2.0028144E-1,1.5005593E-1,-5.867481E-1,-5.1692545E-1,2.0807193E-1,1.388515E-1,7.943004E-1,-4.471081E-1,6.063832E-4,-2.502351E-1,1.040846E0,8.4091437E-1,-5.832299E-1,-3.4065148E-1,1.593467E-1,-5.382568E-1,6.585166E-1,-5.081717E-1,-2.4185628E-1,-4.628832E-1,1.691645E-1,-1.8062171E-1,5.187732E-1,1.3925855E-1,1.1783412E0,1.8290506E-1,-5.3033584E-1,-1.8078673E-1,1.3551702E-1,-5.51211E-1,1.399954E-1,-5.4900654E-2,9.5562625E-1,1.5802485E-1,-3.8840953E-1,1.20147444E-1,1.1275079E0,-4.8636425E-1,9.8484313E-1,1.0570912E-1,-5.2252924E-1,2.696657E-1,-1.7102933E-1,-1.2490026E-1,4.261779E-1,3.4182715E-1,1.5025259E-2,1.966084E-1,-1.7731449E-1,-1.4257357E-1,1.0222915E-1,2.8132606E-1,4.3530405E-2,-1.7151627E-1,2.6934853E-1,3.7898833E-1,-1.3391653E-1,-1.6467588E-1,-7.215883E-2,-1.2086094E-1,8.515562E-2,-1.5955208E-1,1.3654813E-1,-1.2125949E-1,1.05025776E-1,4.2195982E-1,-1.6873887E-1,7.413426E-2,-1.0308441E-1,-1.5102436E-1,4.3336287E-1,-1.347033E-1,6.606453E-2,3.1485206E-1,-1.7912734E-1,2.8763738E-1,-1.5894626E-1,-1.7109136E-1,5.9531465E-2,2.650379E-1,-9.052835E-2,-6.832322E-2,4.3249264E-1,-1.366292E-1,3.2293588E-1,4.4715874E-2,3.8787207E-1,-1.5094769E-1,1.9443344E-1,-7.057831E-2,4.2592922E-1,4.1022518E-1,-1.7803118E-1,-1.680375E-1,4.284716E-2,-1.0960307E-1,3.7466145E-1,5.6208614E-3,1.9709647E-1,-1.664682E-1,2.7160618E-1],"categories":[],"categories_nodes":[],"categories_segments":[],"categories_sizes":[],"default_left":[0,0,0,0,0,0,0,0,0,0,0,0,0,0,0,0,0,0,0,0,0,0,0,0,0,0,0,0,0,0,0,0,0,0,0,0,0,0,0,0,0,0,0,0,0,0,0,0,0,0,0,0,0,0,0,0,0,0,0,0,0,0,0,0,0,0,0,0,0,0,0,0,0,0,0,0,0,0,0,0,0,0,0,0,0,0,0,0,0,0,0,0,0,0,0,0,0,0,0,0,0,0,0,0,0,0,0,0,0,0,0,0,0,0,0,0,0,0,0,0,0,0,0],"id":9,"left_children":[1,3,5,7,9,11,13,15,17,19,21,23,25,27,29,31,33,35,37,39,41,43,45,47,49,51,53,55,57,59,61,63,65,67,69,71,73,75,77,79,81,83,85,-1,87,89,91,93,95,-1,97,99,101,103,105,107,109,111,113,115,117,119,121,-1,-1,-1,-1,-1,-1,-1,-1,-1,-1,-1,-1,-1,-1,-1,-1,-1,-1,-1,-1,-1,-1,-1,-1,-1,-1,-1,-1,-1,-1,-1,-1,-1,-1,-1,-1,-1,-1,-1,-1,-1,-1,-1,-1,-1,-1,-1,-1,-1,-1,-1,-1,-1,-1,-1,-1,-1,-1,-1,-1],"loss_changes":[1.5467175E2,1.7258609E2,1.1442693E2,1.05515755E2,1.1396747E2,1.3823907E2,7.468375E1,1.7012955E1,5.5639297E1,7.662317E1,3.985863E1,1.2459964E2,6.1539093E1,4.6817444E1,4.6280785E1,7.4263945E0,8.2784195E0,5.131212E1,9.851818E0,5.2186646E1,5.6971466E1,1.0736828E1,2.7775026E1,2.7625368E1,3.315834E0,2.4691376E1,2.5920658E1,2.6464252E1,2.5425705E1,1.9969566E1,3.8107033E1,3.7027268E0,5.9386854E0,9.561045E-1,3.7961807E0,2.1446419E1,1.958921E1,8.492264E0,5.4804077E0,3.4137268E1,8.184677E1,1.4598576E1,4.00093E1,0E0,1.0082924E1,2.309203E1,1.2974743E1,2.7818024E1,6.636217E0,0E0,4.2780504E0,1.4982697E1,1.8332142E1,2.575259E1,6.337761E0,2.5474297E1,1.1260237E1,1.8236229E1,3.220314E1,1.5773109E1,3.87224E0,2.7658297E1,5.860729E0,0E0,0E0,0E0,0E0,0E0,0E0,0E0,0E0,0E0,0E0,0E0,0E0,0E0,0E0,0E0,0E0,0E0,0E0,0E0,0E0,0E0,0E0,0E0,0E0,0E0,0E0,0E0,0E0,0E0,0E0,0E0,0E0,0E0,0E0,0E0,0E0,0E0,0E0,0E0,0E0,0E0,0E0,0E0,0E0,0E0,0E0,0E0,0E0,0E0,0E0,0E0,0E0,0E0,0E0,0E0,0E0,0E0,0E0,0E0,0E0],"parents":[2147483647,0,0,1,1,2,2,3,3,4,4,5,5,6,6,7,7,8,8,9,9,10,10,11,11,12,12,13,13,14,14,15,15,16,16,17,17,18,18,19,19,20,20,21,21,22,22,23,23,24,24,25,25,26,26,27,27,28,28,29,29,30,30,31,31,32,32,33,33,34,34,35,35,36,36,37,37,38,38,39,39,40,40,41,41,42,42,44,44,45,45,46,46,47,47,48,48,50,50,51,51,52,52,53,53,54,54,55,55,56,56,57,57,58,58,59,59,60,60,61,61,62,62],"right_children":[2,4,6,8,10,12,14,16,18,20,22,24,26,28,30,32,34,36,38,40,42,44,46,48,50,52,54,56,58,60,62,64,66,68,70,72,74,76,78,80,82,84,86,-1,88,90,92,94,96,-1,98,100,102,104,106,108,110,112,114,116,118,120,122,-1,-1,-1,-1,-1,-1,-1,-1,-1,-1,-1,-1,-1,-1,-1,-1,-1,-1,-1,-1,-1,-1,-1,-1,-1,-1,-1,-1,-1,-1,-1,-1,-1,-1,-1,-1,-1,-1,-1,-1,-1,-1,-1,-1,-1,-1,-1,-1,-1,-1,-1,-1,-1,-1,-1,-1,-1,-1,-1,-1],"split_conditions":[1.9377887E-1,6.186206E-2,1.8998073E-1,7.4331746E-2,2.1206929E-1,1.8214008E-1,2.1632652E-1,6.4006045E-2,1.7754845E-1,2.5637454E-1,7.13274E-2,2.4583432E-1,3.1673813E-1,2.647492E-1,6.1796777E-2,4.51572E-2,3.8583122E-2,5.7519965E-2,2.4499546E-1,2.6782086E-1,1.7465787E-1,2.7267152E-1,2.642086E-1,2.4800645E-1,1.8859991E-1,2.305257E-1,2.9576835E-1,2.9157576E-1,2.091889E-1,3.7803257E-1,2.860929E-1,6.157311E-2,4.8007734E-2,9.7925626E-2,4.2091794E-2,2.1058513E-1,7.1703214E-3,2.9871953E-1,2.278199E-1,2.4084328E-1,2.1495871E-1,2.6461235E-1,1.5991871E-1,-1.8062171E-1,1.3379145E-1,2.825606E-1,9.591918E-2,8.85782E-2,1.2441792E-2,-1.8078673E-1,3.72277E-2,2.7673024E-1,2.2304523E-1,4.9493287E-2,7.266743E-2,3.7673745E-1,2.277087E-1,1.8079863E-1,9.712085E-2,2.2475125E-1,4.715115E-3,2.903911E-1,2.975308E-1,2.696657E-1,-1.7102933E-1,-1.2490026E-1,4.261779E-1,3.4182715E-1,1.5025259E-2,1.966084E-1,-1.7731449E-1,-1.4257357E-1,1.0222915E-1,2.8132606E-1,4.3530405E-2,-1.7151627E-1,2.6934853E-1,3.7898833E-1,-1.3391653E-1,-1.6467588E-1,-7.215883E-2,-1.2086094E-1,8.515562E-2,-1.5955208E-1,1.3654813E-1,-1.2125949E-1,1.05025776E-1,4.2195982E-1,-1.6873887E-1,7.413426E-2,-1.0308441E-1,-1.5102436E-1,4.3336287E-1,-1.347033E-1,6.606453E-2,3.1485206E-1,-1.7912734E-1,2.8763738E-1,-1.5894626E-1,-1.7109136E-1,5.9531465E-2,2.650379E-1,-9.052835E-2,-6.832322E-2,4.3249264E-1,-1.366292E-1,3.2293588E-1,4.4715874E-2,3.8787207E-1,-1.5094769E-1,1.9443344E-1,-7.057831E-2,4.2592922E-1,4.1022518E-1,-1.7803118E-1,-1.680375E-1,4.284716E-2,-1.0960307E-1,3.7466145E-1,5.6208614E-3,1.9709647E-1,-1.664682E-1,2.7160618E-1],"split_indices":[603,396,674,625,571,178,648,783,16,1042,905,645,156,1389,749,294,130,666,221,999,327,520,1218,979,1414,1157,1033,1539,891,168,1301,35,1387,1102,740,1388,284,1009,1228,1089,1152,725,855,0,349,1553,359,866,297,0,1281,514,486,228,1075,170,926,1672,123,1214,18,1590,1269,0,0,0,0,0,0,0,0,0,0,0,0,0,0,0,0,0,0,0,0,0,0,0,0,0,0,0,0,0,0,0,0,0,0,0,0,0,0,0,0,0,0,0,0,0,0,0,0,0,0,0,0,0,0,0,0,0,0,0,0],"split_type":[0,0,0,0,0,0,0,0,0,0,0,0,0,0,0,0,0,0,0,0,0,0,0,0,0,0,0,0,0,0,0,0,0,0,0,0,0,0,0,0,0,0,0,0,0,0,0,0,0,0,0,0,0,0,0,0,0,0,0,0,0,0,0,0,0,0,0,0,0,0,0,0,0,0,0,0,0,0,0,0,0,0,0,0,0,0,0,0,0,0,0,0,0,0,0,0,0,0,0,0,0,0,0,0,0,0,0,0,0,0,0,0,0,0,0,0,0,0,0,0,0,0,0],"sum_hessian":[1.4325475E4,7.8309663E3,6.4945083E3,2.5509753E3,5.279991E3,2.7342002E3,3.7603083E3,3.706487E2,2.1803267E3,4.7149717E3,5.650193E2,1.5117589E3,1.2224413E3,2.7235159E3,1.0367926E3,1.634282E1,3.543059E2,2.008939E3,1.7138757E2,4.105862E3,6.091097E2,9.790207E1,4.6711722E2,1.2306787E3,2.8108017E2,1.0918542E3,1.3058696E2,2.6107249E3,1.12790886E2,3.457276E2,6.9106494E2,7.679584E0,8.663235E0,3.2918205E0,3.5101407E2,2.3107397E2,1.777865E3,1.6503E2,6.357568E0,3.1412847E3,9.6457745E2,2.25781E2,3.8332867E2,8.922188E1,8.680195E0,4.407598E2,2.6357409E1,1.1746959E3,5.5982826E1,2.7519742E2,5.882747E0,1.0378485E3,5.4005745E1,9.7289345E1,3.329762E1,2.5197952E3,9.092971E1,3.775821E1,7.503268E1,3.371453E2,8.582308E0,5.7611597E2,1.1494903E2,1.2780193E0,6.401565E0,1.7710283E0,6.892207E0,2.069765E0,1.2220554E0,1.6822903E0,3.493318E2,1.9321297E2,3.786101E1,3.0786304E1,1.7470787E3,1.6186018E2,3.1698282E0,4.0160193E0,2.3415484E0,2.7253115E3,4.1597308E2,7.385949E2,2.2598256E2,2.1039804E2,1.5382964E1,9.16486E1,2.9168008E2,4.601353E0,4.078842E0,3.606847E2,8.0075096E1,3.4801464E0,2.2877262E1,6.487528E1,1.1098207E3,1.6727796E0,5.4310047E1,2.4321723E0,3.4505746E0,1.01230444E3,2.5544117E1,1.9756395E1,3.424935E1,8.7976326E1,9.313019E0,2.407906E0,3.0889711E1,2.5011533E3,1.8641846E1,8.232985E1,8.599863E0,3.0292925E1,7.4652834E0,6.603277E1,8.999907E0,3.0186676E2,3.5278557E1,1.3409971E0,7.241311E0,4.9850323E2,7.761271E1,1.1299915E2,1.9498751E0],"tree_param":{"num_deleted":"0","num_feature":"1764","num_nodes":"123","size_leaf_vector":"1"}},{"base_weights":[-1.461614E-1,-9.215475E-2,-3.2877433E-1,-2.0477809E-1,7.7368595E-2,-4.4309908E-1,1.2323424E-1,-2.5300038E-1,2.2563018E-1,-4.9199876E-1,1.1199478E-1,-4.887994E-1,1.8159254E-1,1.8530232E-1,-5.318882E-1,-3.7539577E-1,-9.433129E-2,3.3965498E-1,-3.872157E-1,-5.4768944E-1,1.3389548E0,1.3951534E-1,-3.1259444E-1,-5.2587175E-1,2.1179886E-1,5.7522243E-1,-1.4873111E-1,1.0308661E-2,3.5649517E-1,3.574141E-1,-5.956125E-1,-4.1034928E-1,3.4413046E-1,-4.4913134E-1,-4.7476003E-3,1.9206522E-1,7.2272956E-1,3.6770037E-1,-4.97071E-1,-5.702632E-1,6.9306564E-1,-1.0792216E-1,5.048851E-1,2.1183288E-1,-6.86134E-3,-3.753169E-1,9.3198055E-1,-5.5553395E-1,1.7779925E-1,-2.2778178E-2,1.1240357E0,-1.9213222E-1,9.167263E-1,5.800365E-1,-3.8680214E-1,8.609261E-1,-9.921356E-2,-3.1730017E-1,4.481389E-1,3.3992505E-1,-1.3379295E-1,-1.8398832E-1,4.5400497E-2,-1.3436167E-1,2.862616E-2,3.1617627E-1,-1.8146959E-3,-1.7183302E-1,3.8764377E-3,2.073708E-2,-1.3357346E-1,1.20448366E-1,-9.852172E-2,3.714042E-1,2.3241822E-2,-9.446182E-2,2.9745126E-1,-1.6697642E-1,2.9284865E-1,-1.7571577E-1,3.0677935E-1,-1.2269217E-1,3.9639702E-1,5.608493E-2,3.1100157E-1,3.447714E-2,-8.155836E-2,-1.5735233E-1,4.514114E-2,5.0691694E-1,-2.0569988E-2,6.48869E-2,-1.6965204E-1,-1.2825811E-1,1.5665025E-1,-1.4090537E-1,1.8301946E-1,-1.2339351E-1,5.048418E-1,4.0397087E-1,-1.6670223E-1,1.4624964E-2,3.825357E-1,3.1286636E-1,-1.1302779E-1,-1.4697063E-1,1.5371785E-1,3.172868E-1,-7.149622E-2,-5.2128233E-2,1.719413E-1,1.06956825E-1,-1.6528143E-1,-1.9072662E-1,1.5105799E-1],"categories":[],"categories_nodes":[],"categories_segments":[],"categories_sizes":[],"default_left":[0,0,0,0,0,0,0,0,0,0,0,0,0,0,0,0,0,0,0,0,0,0,0,0,0,0,0,0,0,0,0,0,0,0,0,0,0,0,0,0,0,0,0,0,0,0,0,0,0,0,0,0,0,0,0,0,0,0,0,0,0,0,0,0,0,0,0,0,0,0,0,0,0,0,0,0,0,0,0,0,0,0,0,0,0,0,0,0,0,0,0,0,0,0,0,0,0,0,0,0,0,0,0,0,0,0,0,0,0,0,0,0,0,0,0],"id":10,"left_children":[1,3,5,7,9,11,13,15,17,19,21,23,25,27,29,31,33,35,37,39,41,43,45,47,49,51,53,55,57,59,61,63,65,67,69,71,73,75,77,79,81,-1,-1,83,85,87,89,91,93,95,97,99,101,103,105,107,109,111,113,-1,-1,-1,-1,-1,-1,-1,-1,-1,-1,-1,-1,-1,-1,-1,-1,-1,-1,-1,-1,-1,-1,-1,-1,-1,-1,-1,-1,-1,-1,-1,-1,-1,-1,-1,-1,-1,-1,-1,-1,-1,-1,-1,-1,-1,-1,-1,-1,-1,-1,-1,-1,-1,-1,-1,-1],"loss_changes":[1.4142618E2,2.1138293E2,1.6920615E2,1.38121E2,8.719185E1,7.467944E1,2.699916E1,1.1614252E2,4.700123E1,2.6588905E1,4.8737644E1,6.335315E1,2.333925E1,1.8122232E1,3.4721088E0,8.506842E1,8.28418E1,3.1863708E1,8.947288E0,7.3075104E0,5.148818E0,4.143638E1,2.0175768E1,4.8373352E1,2.6363949E1,2.1613773E1,1.7233074E1,2.805564E1,1.9026123E1,3.2912128E0,8.0656433E-1,6.1167786E1,3.902578E1,3.0025238E1,6.777975E1,4.4819466E1,5.212699E1,6.273376E0,8.670044E0,6.579773E0,3.9061124E0,0E0,0E0,5.357927E1,4.183567E1,1.9101467E1,9.571958E0,1.7206726E1,1.98823E1,2.8253721E1,2.2307903E1,1.5304041E1,1.7602264E1,1.1260372E1,7.157158E0,7.6792965E0,1.3476273E1,6.0528417E0,1.6506428E1,0E0,0E0,0E0,0E0,0E0,0E0,0E0,0E0,0E0,0E0,0E0,0E0,0E0,0E0,0E0,0E0,0E0,0E0,0E0,0E0,0E0,0E0,0E0,0E0,0E0,0E0,0E0,0E0,0E0,0E0,0E0,0E0,0E0,0E0,0E0,0E0,0E0,0E0,0E0,0E0,0E0,0E0,0E0,0E0,0E0,0E0,0E0,0E0,0E0,0E0,0E0,0E0,0E0,0E0,0E0,0E0],"parents":[2147483647,0,0,1,1,2,2,3,3,4,4,5,5,6,6,7,7,8,8,9,9,10,10,11,11,12,12,13,13,14,14,15,15,16,16,17,17,18,18,19,19,20,20,21,21,22,22,23,23,24,24,25,25,26,26,27,27,28,28,29,29,30,30,31,31,32,32,33,33,34,34,35,35,36,36,37,37,38,38,39,39,40,40,43,43,44,44,45,45,46,46,47,47,48,48,49,49,50,50,51,51,52,52,53,53,54,54,55,55,56,56,57,57,58,58],"right_children":[2,4,6,8,10,12,14,16,18,20,22,24,26,28,30,32,34,36,38,40,42,44,46,48,50,52,54,56,58,60,62,64,66,68,70,72,74,76,78,80,82,-1,-1,84,86,88,90,92,94,96,98,100,102,104,106,108,110,112,114,-1,-1,-1,-1,-1,-1,-1,-1,-1,-1,-1,-1,-1,-1,-1,-1,-1,-1,-1,-1,-1,-1,-1,-1,-1,-1,-1,-1,-1,-1,-1,-1,-1,-1,-1,-1,-1,-1,-1,-1,-1,-1,-1,-1,-1,-1,-1,-1,-1,-1,-1,-1,-1,-1,-1,-1],"split_conditions":[1.8330644E-1,1.6629732E-1,3.650991E-1,3.1882256E-1,5.9351478E-2,2.9977763E-1,1.2623823E-1,1.2790571E-1,1.902822E-1,2.766525E-1,2.336913E-1,2.6266325E-1,4.3736726E-2,1.22053206E-1,4.7760088E-2,2.8830087E-1,8.16516E-2,6.347164E-2,1.6730055E-1,2.0747268E-1,2.0151824E-1,6.1558712E-2,2.9673684E-1,2.7912557E-1,1.7759778E-1,9.570417E-2,2.8577521E-2,1.1035898E-2,1.0995596E-1,7.2337E-2,2.3248942E-1,2.9309362E-1,1.6503063E-1,2.3176165E-1,2.2814967E-1,1.2692995E-1,1.14483975E-1,1.4550222E-1,2.7094406E-1,2.5523743E-1,5.7093613E-2,-1.0792216E-1,5.048851E-1,2.520287E-1,2.1871223E-1,1.6216244E-1,1.1274025E-1,4.6967167E-2,3.7751466E-2,2.0679176E-1,1.2712571E-1,1.1465666E-1,8.167763E-2,1.7035381E-1,2.6840025E-1,1.423867E-1,2.570714E-1,8.194852E-2,5.0921164E-2,3.3992505E-1,-1.3379295E-1,-1.8398832E-1,4.5400497E-2,-1.3436167E-1,2.862616E-2,3.1617627E-1,-1.8146959E-3,-1.7183302E-1,3.8764377E-3,2.073708E-2,-1.3357346E-1,1.20448366E-1,-9.852172E-2,3.714042E-1,2.3241822E-2,-9.446182E-2,2.9745126E-1,-1.6697642E-1,2.9284865E-1,-1.7571577E-1,3.0677935E-1,-1.2269217E-1,3.9639702E-1,5.608493E-2,3.1100157E-1,3.447714E-2,-8.155836E-2,-1.5735233E-1,4.514114E-2,5.0691694E-1,-2.0569988E-2,6.48869E-2,-1.6965204E-1,-1.2825811E-1,1.5665025E-1,-1.4090537E-1,1.8301946E-1,-1.2339351E-1,5.048418E-1,4.0397087E-1,-1.6670223E-1,1.4624964E-2,3.825357E-1,3.1286636E-1,-1.1302779E-1,-1.4697063E-1,1.5371785E-1,3.172868E-1,-7.149622E-2,-5.2128233E-2,1.719413E-1,1.06956825E-1,-1.6528143E-1,-1.9072662E-1,1.5105799E-1],"split_indices":[1155,353,120,1034,1183,86,861,418,1568,447,398,1171,403,1545,1427,775,1214,113,1131,766,0,1617,474,1058,1239,1658,1691,1602,1271,99,655,999,1329,1693,1417,1123,1263,171,1548,1466,153,0,0,1109,493,276,1591,1397,1262,449,1132,853,400,1021,782,1166,1530,1526,883,0,0,0,0,0,0,0,0,0,0,0,0,0,0,0,0,0,0,0,0,0,0,0,0,0,0,0,0,0,0,0,0,0,0,0,0,0,0,0,0,0,0,0,0,0,0,0,0,0,0,0,0,0,0,0,0],"split_type":[0,0,0,0,0,0,0,0,0,0,0,0,0,0,0,0,0,0,0,0,0,0,0,0,0,0,0,0,0,0,0,0,0,0,0,0,0,0,0,0,0,0,0,0,0,0,0,0,0,0,0,0,0,0,0,0,0,0,0,0,0,0,0,0,0,0,0,0,0,0,0,0,0,0,0,0,0,0,0,0,0,0,0,0,0,0,0,0,0,0,0,0,0,0,0,0,0,0,0,0,0,0,0,0,0,0,0,0,0,0,0,0,0,0,0],"sum_hessian":[1.4342135E4,1.1069811E4,3.2723242E3,6.650994E3,4.418816E3,2.6117615E3,6.60563E2,5.981274E3,6.697205E2,2.5256787E2,4.166248E3,2.4339216E3,1.7783983E2,6.040507E2,5.651225E1,3.375832E3,2.605442E3,5.6503674E2,1.0468377E2,2.4579265E2,6.7752104E0,3.9132732E3,2.5297488E2,2.3118394E3,1.2208223E2,8.0806015E1,9.703381E1,2.992337E2,3.0481702E2,3.4705367E0,5.3041714E1,3.2198464E3,1.5598561E2,5.244241E2,2.0810178E3,4.0897104E2,1.560657E2,1.3000223E1,9.168355E1,2.4193146E2,3.8612018E0,1.1332583E0,5.641952E0,2.6189375E3,1.2943357E3,2.4150241E2,1.147248E1,2.218531E3,9.330835E1,9.78863E1,2.4195929E1,2.5021172E1,5.5784847E1,2.3539577E1,7.349424E1,3.3350708E1,2.65883E2,3.6200016E1,2.68617E2,1.5569413E0,1.9135954E0,5.1989933E1,1.0517797E0,2.997572E3,2.2227444E2,5.086863E1,1.0511699E2,4.1352505E2,1.10899025E2,1.7828737E3,2.9814407E2,2.917885E2,1.17182526E2,8.626122E1,6.980449E1,6.444174E0,6.5560493E0,8.87215E1,2.9620538E0,2.4023268E2,1.698771E0,1.5287049E0,2.332497E0,2.5434358E3,7.5501785E1,8.871824E2,4.0715323E2,1.8812486E2,5.3377544E1,6.136407E0,5.3360724E0,2.8036463E1,2.1904944E3,3.3746925E1,5.956142E1,5.752244E1,4.0363857E1,6.5265784E0,1.7669352E1,4.265077E0,2.0756094E1,1.663449E1,3.9150356E1,1.5804263E1,7.735315E0,6.634269E1,7.151546E0,2.8320902E1,5.0298066E0,2.4001302E2,2.5869976E1,9.184761E0,2.7015253E1,1.2549769E1,2.5606723E2],"tree_param":{"num_deleted":"0","num_feature":"1764","num_nodes":"115","size_leaf_vector":"1"}},{"base_weights":[3.4751016E-1,4.0148905E-1,-3.4048417E-1,-2.3073094E-1,4.570162E-1,-4.9564376E-1,1.1077633E0,8.813742E-1,-4.5391613E-1,7.7502096E-1,3.412401E-1,5.3993326E-1,-5.865043E-1,-1.6308741E-1,1.2076372E0,-1.5750033E-1,2.780276E-1,-5.816826E-1,8.32678E-1,8.7028855E-1,-3.670076E-1,4.2224815E-1,-2.6246288E-1,-1.8977392E-1,1.0179672E0,-6.1158514E-1,3.0403116E-1,1.0748699E-1,1.2137591E0,-6.069569E-1,7.5505936E-1,-1.7619412E-1,2.825748E-1,8.992527E-1,-5.181813E-1,7.0202476E-1,-5.936411E-1,6.1121565E-1,1.8158E-1,-5.307585E-1,5.275171E-1,8.070736E-2,3.0890012E-1,-6.251443E-1,6.319699E-1,3.3837998E-1,4.15006E-1,-1.8615325E-1,2.2963935E-1,2.93439E-1,-1.3649929E-1,2.7801317E-1,-1.16840206E-1,-1.8937911E-1,2.5222617E-1,2.8965807E-1,-1.9311273E-1,-1.8907218E-1,2.5304955E-1,2.717941E-1,1.1066625E-1,-1.0865474E-2,1.8094423E-1,2.6845506E-1,-1.7827982E-1,2.3558418E-1,-1.8845062E-1,-1.8906806E-1,2.1538468E-1,-1.6953607E-1,3.068219E-1],"categories":[],"categories_nodes":[],"categories_segments":[],"categories_sizes":[],"default_left":[0,0,0,0,0,0,0,0,0,0,0,0,0,0,0,0,0,0,0,0,0,0,0,0,0,0,0,0,0,0,0,0,0,0,0,0,0,0,0,0,0,0,0,0,0,0,0,0,0,0,0,0,0,0,0,0,0,0,0,0,0,0,0,0,0,0,0,0,0,0,0],"id":11,"left_children":[1,3,5,7,9,11,13,15,17,19,21,23,25,-1,27,-1,-1,29,31,33,35,37,39,-1,41,43,-1,-1,45,47,49,-1,-1,51,53,55,57,59,61,63,65,-1,-1,67,69,-1,-1,-1,-1,-1,-1,-1,-1,-1,-1,-1,-1,-1,-1,-1,-1,-1,-1,-1,-1,-1,-1,-1,-1,-1,-1],"loss_changes":[6.744551E2,5.911753E2,2.9750446E2,3.37971E2,5.69593E2,1.12693665E2,2.179892E1,1.5017761E1,1.8679408E2,4.4968652E2,5.5511597E2,5.4932133E1,4.4698853E1,0E0,1.9526672E-1,0E0,0E0,3.531073E1,1.6498558E1,1.5379126E2,7.763596E1,4.5496448E2,2.8498508E2,0E0,3.2925415E-1,1.864151E1,0E0,0E0,1.8492126E-1,1.9318512E1,5.732485E0,0E0,0E0,1.3252612E2,1.26002655E1,2.0552988E1,1.4392014E1,4.000183E2,4.0424994E2,9.136081E1,1.02090225E2,0E0,0E0,7.7632446E0,6.270497E0,0E0,0E0,0E0,0E0,0E0,0E0,0E0,0E0,0E0,0E0,0E0,0E0,0E0,0E0,0E0,0E0,0E0,0E0,0E0,0E0,0E0,0E0,0E0,0E0,0E0,0E0],"parents":[2147483647,0,0,1,1,2,2,3,3,4,4,5,5,6,6,7,7,8,8,9,9,10,10,11,11,12,12,14,14,17,17,18,18,19,19,20,20,21,21,22,22,24,24,25,25,28,28,29,29,30,30,33,33,34,34,35,35,36,36,37,37,38,38,39,39,40,40,43,43,44,44],"right_children":[2,4,6,8,10,12,14,16,18,20,22,24,26,-1,28,-1,-1,30,32,34,36,38,40,-1,42,44,-1,-1,46,48,50,-1,-1,52,54,56,58,60,62,64,66,-1,-1,68,70,-1,-1,-1,-1,-1,-1,-1,-1,-1,-1,-1,-1,-1,-1,-1,-1,-1,-1,-1,-1,-1,-1,-1,-1,-1,-1],"split_conditions":[3.0862752E-1,3.9639052E-2,2.3089115E-1,5.7249893E-2,1.3258788E-1,3.896126E-2,3.169135E-2,6.1469864E-2,1.8153809E-1,2.9091403E-1,2.7725977E-1,1.5193394E-1,2.5270614E-1,-1.6308741E-1,1.6729324E-1,-1.5750033E-1,2.780276E-1,2.0738433E-1,1.2937355E-1,2.555979E-1,1.0356462E-1,1.6145E-1,2.311721E-1,-1.8977392E-1,1.406505E-1,1.9385263E-1,3.0403116E-1,1.0748699E-1,1.7923923E-1,2.377669E-1,6.4720705E-2,-1.7619412E-1,2.825748E-1,2.8752667E-1,1.7432016E-1,1.6933376E-1,2.7019805E-1,1.2472621E-1,1.8482554E-1,7.123012E-2,1.5668629E-1,8.070736E-2,3.0890012E-1,1.9181502E-1,1.9921842E-1,3.3837998E-1,4.15006E-1,-1.8615325E-1,2.2963935E-1,2.93439E-1,-1.3649929E-1,2.7801317E-1,-1.16840206E-1,-1.8937911E-1,2.5222617E-1,2.8965807E-1,-1.9311273E-1,-1.8907218E-1,2.5304955E-1,2.717941E-1,1.1066625E-1,-1.0865474E-2,1.8094423E-1,2.6845506E-1,-1.7827982E-1,2.3558418E-1,-1.8845062E-1,-1.8906806E-1,2.1538468E-1,-1.6953607E-1,3.068219E-1],"split_indices":[1651,582,1660,613,1159,1380,47,364,181,1364,737,98,1317,0,800,0,0,519,173,391,1459,353,403,0,405,150,0,0,654,644,2,0,0,1224,402,1713,772,627,1155,1170,873,0,0,83,1354,0,0,0,0,0,0,0,0,0,0,0,0,0,0,0,0,0,0,0,0,0,0,0,0,0,0],"split_type":[0,0,0,0,0,0,0,0,0,0,0,0,0,0,0,0,0,0,0,0,0,0,0,0,0,0,0,0,0,0,0,0,0,0,0,0,0,0,0,0,0,0,0,0,0,0,0,0,0,0,0,0,0,0,0,0,0,0,0,0,0,0,0,0,0,0,0,0,0,0,0],"sum_hessian":[1.8156514E4,1.6836006E4,1.320508E3,1.3590469E3,1.5476958E4,1.1933184E3,1.2718971E2,2.2666306E2,1.1323839E3,4.1292803E3,1.1347678E4,9.585654E1,1.0974618E3,7.000202E0,1.2018951E2,6.755507E0,2.1990755E2,1.0305883E3,1.0179566E2,3.8115596E3,3.1772083E2,1.00054E4,1.3422772E3,2.7668486E1,6.818805E1,1.0811316E3,1.6330225E1,1.2860694E0,1.1890344E2,1.0119999E3,1.858832E1,6.9589806E0,9.4836685E1,3.7340183E3,7.754104E1,5.5207737E1,2.625131E2,5.6038433E3,4.4015576E3,1.0022261E3,3.4005115E2,1.4178978E0,6.677016E1,1.0699625E3,1.1169066E1,8.402968E1,3.4873764E1,1.0026457E3,9.354197E0,1.5856825E1,2.7314944E0,3.6563953E3,7.762314E1,7.207857E1,5.4624705E0,4.640409E1,8.803646E0,2.5654126E2,5.97185E0,2.527134E3,3.0767092E3,2.9027812E3,1.4987764E3,4.2184483E1,9.6004156E2,2.7829984E2,6.1751324E1,1.0664575E3,3.5049455E0,2.638887E0,8.53018E0],"tree_param":{"num_deleted":"0","num_feature":"1764","num_nodes":"71","size_leaf_vector":"1"}},{"base_weights":[-1.1649317E-1,-1.4439699E-1,1.5975754E-1,-9.415121E-2,-3.7455693E-1,2.1767126E-1,-5.3443164E-1,-6.251373E-2,-5.4465926E-1,-4.7181782E-1,8.142333E-2,-4.5342317E-1,2.4098049E-1,-1.7196621E-1,6.978698E-1,-3.376089E-1,-1.8547235E-2,-5.661077E-1,-2.911829E-3,-4.9886718E-1,3.3027735E-1,3.4753966E-1,-1.3197203E-1,9.379787E-1,-6.5026855E-1,5.8508855E-1,1.7369194E-1,2.4862254E-2,2.9811493E-1,-3.670446E-1,6.6465855E-1,-1.0280229E-1,1.20098755E-1,-5.744109E-1,3.6277288E-1,-4.362794E-1,6.4350903E-1,-5.269432E-1,2.6873878E-1,-5.457389E-1,6.1114365E-1,8.301859E-1,-5.629196E-2,5.843156E-1,-2.934233E-1,3.655072E-1,7.852812E-3,-2.0328684E-1,2.6977543E-2,1.0405552E0,2.7738863E-1,8.751988E-1,1.3977239E-1,-1.3638128E-1,3.5589777E-3,-5.9020407E-2,3.4383407E-1,-1.2378611E-1,-8.479402E-3,3.139309E-2,3.7231144E-1,-1.7276095E-1,2.0521056E-2,-1.326151E-1,3.1423452E-1,2.0185341E-1,-1.6610602E-1,3.3437455E-1,-1.4246382E-1,-1.6440268E-1,5.9669457E-2,2.4245648E-1,-9.1525525E-2,-1.8360172E-1,5.1169153E-2,3.392517E-1,-6.0925144E-3,-2.1018075E-2,3.3559886E-1,-1.23297855E-1,1.621191E-1,4.507972E-1,7.760802E-2,5.187662E-2,-1.3724166E-1,-9.867845E-2,3.731111E-1,-1.0044713E-1,2.1026778E-1,1.3394634E-1,4.9178353E-1,1.2391222E-1,2.0678664E-2],"categories":[],"categories_nodes":[],"categories_segments":[],"categories_sizes":[],"default_left":[0,0,0,0,0,0,0,0,0,0,0,0,0,0,0,0,0,0,0,0,0,0,0,0,0,0,0,0,0,0,0,0,0,0,0,0,0,0,0,0,0,0,0,0,0,0,0,0,0,0,0,0,0,0,0,0,0,0,0,0,0,0,0,0,0,0,0,0,0,0,0,0,0,0,0,0,0,0,0,0,0,0,0,0,0,0,0,0,0,0,0,0,0],"id":12,"left_children":[1,3,5,7,9,11,13,15,17,19,21,23,25,-1,27,29,31,33,35,37,39,41,43,45,47,49,51,-1,-1,53,55,57,59,61,63,65,67,69,71,73,75,77,79,81,83,-1,-1,-1,-1,85,87,89,91,-1,-1,-1,-1,-1,-1,-1,-1,-1,-1,-1,-1,-1,-1,-1,-1,-1,-1,-1,-1,-1,-1,-1,-1,-1,-1,-1,-1,-1,-1,-1,-1,-1,-1,-1,-1,-1,-1,-1,-1],"loss_changes":[1.0446742E2,1.4228772E2,5.010969E1,1.4396191E2,9.782431E1,1.8074554E1,4.9908905E0,1.1418352E2,7.69989E0,3.959616E1,2.2106947E1,1.1263834E1,2.5613327E1,0E0,5.329572E-1,3.8624237E1,9.511452E1,5.1256866E0,7.633508E0,3.804062E1,1.5069622E1,3.379692E1,2.51881E1,1.3052673E0,7.628689E-1,2.5109596E1,2.2015259E1,0E0,0E0,4.195598E1,1.5766151E1,1.1694117E2,5.319023E1,6.323395E-1,3.9133983E0,2.4962676E0,6.291953E0,2.6054108E1,1.965943E1,8.196597E-1,1.5060507E1,2.0580608E1,2.0373766E1,1.1609804E1,1.36353E1,0E0,0E0,0E0,0E0,2.0636093E1,2.8630657E1,1.3261841E1,1.7174843E1,0E0,0E0,0E0,0E0,0E0,0E0,0E0,0E0,0E0,0E0,0E0,0E0,0E0,0E0,0E0,0E0,0E0,0E0,0E0,0E0,0E0,0E0,0E0,0E0,0E0,0E0,0E0,0E0,0E0,0E0,0E0,0E0,0E0,0E0,0E0,0E0,0E0,0E0,0E0,0E0],"parents":[2147483647,0,0,1,1,2,2,3,3,4,4,5,5,6,6,7,7,8,8,9,9,10,10,11,11,12,12,14,14,15,15,16,16,17,17,18,18,19,19,20,20,21,21,22,22,23,23,24,24,25,25,26,26,29,29,30,30,31,31,32,32,33,33,34,34,35,35,36,36,37,37,38,38,39,39,40,40,41,41,42,42,43,43,44,44,49,49,50,50,51,51,52,52],"right_children":[2,4,6,8,10,12,14,16,18,20,22,24,26,-1,28,30,32,34,36,38,40,42,44,46,48,50,52,-1,-1,54,56,58,60,62,64,66,68,70,72,74,76,78,80,82,84,-1,-1,-1,-1,86,88,90,92,-1,-1,-1,-1,-1,-1,-1,-1,-1,-1,-1,-1,-1,-1,-1,-1,-1,-1,-1,-1,-1,-1,-1,-1,-1,-1,-1,-1,-1,-1,-1,-1,-1,-1,-1,-1,-1,-1,-1,-1],"split_conditions":[2.3440129E-1,1.8958382E-1,2.2162239E-1,2.502138E-1,3.5693666E-1,6.750296E-3,2.4488033E-1,8.297669E-2,1.953872E-1,2.5211298E-1,6.8209656E-2,6.8908553E-3,1.575333E-2,-1.7196621E-1,4.1880302E-2,2.8328556E-1,1.7740631E-1,3.0294582E-1,1.981771E-1,4.052684E-1,1.0445331E-1,1.4262292E-1,6.16532E-2,1.2608984E-1,2.5420249E-1,1.590232E-2,1.3788269E-2,2.4862254E-2,2.9811493E-1,2.6945323E-1,2.7362186E-1,9.4687045E-2,2.5320423E-1,2.2613502E-1,2.2351065E-1,1.1622879E-1,1.0328559E-2,2.7649498E-1,1.03775434E-1,2.1580315E-1,6.8860926E-2,6.0584158E-2,3.00087E-1,2.4275693E-1,6.958575E-2,3.655072E-1,7.852812E-3,-2.0328684E-1,2.6977543E-2,7.8913E-3,1.6419338E-2,2.4093609E-1,9.86287E-2,-1.3638128E-1,3.5589777E-3,-5.9020407E-2,3.4383407E-1,-1.2378611E-1,-8.479402E-3,3.139309E-2,3.7231144E-1,-1.7276095E-1,2.0521056E-2,-1.326151E-1,3.1423452E-1,2.0185341E-1,-1.6610602E-1,3.3437455E-1,-1.4246382E-1,-1.6440268E-1,5.9669457E-2,2.4245648E-1,-9.1525525E-2,-1.8360172E-1,5.1169153E-2,3.392517E-1,-6.0925144E-3,-2.1018075E-2,3.3559886E-1,-1.23297855E-1,1.621191E-1,4.507972E-1,7.760802E-2,5.187662E-2,-1.3724166E-1,-9.867845E-2,3.731111E-1,-1.0044713E-1,2.1026778E-1,1.3394634E-1,4.9178353E-1,1.2391222E-1,2.0678664E-2],"split_indices":[418,1094,361,920,140,142,952,1102,391,1308,902,127,434,0,29,1627,420,1723,816,1667,213,1673,1669,415,390,285,506,0,0,999,1613,614,1320,1081,646,1664,1648,517,1307,861,165,1684,1355,1171,269,0,0,0,0,285,1718,279,1482,0,0,0,0,0,0,0,0,0,0,0,0,0,0,0,0,0,0,0,0,0,0,0,0,0,0,0,0,0,0,0,0,0,0,0,0,0,0,0,0],"split_type":[0,0,0,0,0,0,0,0,0,0,0,0,0,0,0,0,0,0,0,0,0,0,0,0,0,0,0,0,0,0,0,0,0,0,0,0,0,0,0,0,0,0,0,0,0,0,0,0,0,0,0,0,0,0,0,0,0,0,0,0,0,0,0,0,0,0,0,0,0,0,0,0,0,0,0,0,0,0,0,0,0,0,0,0,0,0,0,0,0,0,0,0,0],"sum_hessian":[1.3548336E4,1.2305814E4,1.242521E3,1.0101897E4,2.2039167E3,1.1474775E3,9.5043495E1,9.440095E3,6.618033E2,1.8164354E3,3.8748148E2,3.78983E1,1.1095792E3,9.266163E1,2.3818614E0,1.2999188E3,8.140176E3,6.3655634E2,2.5246933E1,1.7575431E3,5.8892254E1,1.7215973E2,2.1532175E2,4.2304325E0,3.3667866E1,1.8022556E2,9.2935364E2,1.1894336E0,1.1924279E0,1.2634463E3,3.64725E1,5.0634062E3,3.0767695E3,6.312948E2,5.2615356E0,1.530882E1,9.938114E0,1.6958297E3,6.171339E1,1.4068823E1,4.482343E1,7.7945755E1,9.4213974E1,3.912451E1,1.7619724E2,2.978377E0,1.2520553E0,3.254952E1,1.1183505E0,7.170456E1,1.0852099E2,4.172E1,8.876336E2,1.0261251E3,2.3732126E2,1.32886095E1,2.3183891E1,9.8106055E2,4.0823457E3,3.0360034E3,4.0766037E1,6.2996924E2,1.3255556E0,2.5814521E0,2.6800833E0,1.0125546E0,1.4296265E1,6.995124E0,2.9429905E0,1.6482388E3,4.7590935E1,3.1598934E1,3.0114454E1,1.3010772E1,1.0580515E0,2.415369E1,2.0669739E1,1.9099463E1,5.8846294E1,5.9283936E1,3.493004E1,9.295105E0,2.9829407E1,4.583812E1,1.3035913E2,9.182622E0,6.252194E1,4.4459805E1,6.406119E1,2.7739964E1,1.3980038E1,1.8174577E2,7.058879E2],"tree_param":{"num_deleted":"0","num_feature":"1764","num_nodes":"93","size_leaf_vector":"1"}},{"base_weights":[-1.182031E-1,-2.144922E-1,-3.184071E-2,-3.136056E-2,-3.3541948E-1,-2.589463E-1,2.0258473E-2,-4.8658374E-1,4.3954916E-2,-3.8455766E-1,9.6648484E-2,-4.1167793E-1,6.120371E-2,4.091517E-2,-5.264334E-1,-5.553131E-1,3.003145E-1,7.999695E-2,-1.7350842E-1,-4.4402418E-1,-1.9390516E-2,1.4851976E-3,9.2661434E-1,1.5469587E-1,-5.0320065E-1,-4.384386E-2,5.473393E-1,-2.7739182E-1,7.749356E-2,8.1895375E-1,-5.878893E-1,2.9965708E-1,-5.688669E-1,-1.6783856E-1,6.119359E-1,1.13662764E-1,-5.272522E-1,-5.125591E-1,-2.5293076E-1,1.5345187E-1,-5.686804E-1,-5.234576E-1,1.16919674E-1,1.1592438E0,-1.6728245E-1,-5.0192963E-2,9.248546E-1,2.6105067E-1,-5.3548145E-1,-2.016391E-1,2.6505813E-1,-5.3232986E-1,7.5058323E-1,-3.3441615E-1,1.1247494E0,9.3904644E-2,-5.0414425E-1,1.2263923E0,-1.4172384E-1,-1.8028177E-1,2.2543712E-1,-1.7240876E-1,1.5024407E-1,2.6015487E-1,-1.4994848E-1,3.97249E-2,-1.6202223E-1,-1.6607368E-1,2.3353678E-1,-1.581586E-1,4.967541E-2,-1.1975307E-1,8.749068E-2,-8.923176E-2,9.1045275E-2,5.9631802E-2,-1.7313838E-1,2.608978E-1,-1.7384599E-1,6.5237395E-2,-1.6680072E-1,-1.09540775E-1,4.179244E-1,-1.6043535E-1,6.132506E-2,3.6609676E-1,-1.13783315E-1,1.9267438E-1,-1.4902008E-1,-4.631471E-3,-1.6804686E-1,-9.124756E-2,2.2037712E-1,1.676403E-1,-3.0216977E-2,-1.8266848E-1,5.4385755E-2,7.453203E-2,4.1137928E-1,1.810243E-2,-1.3672826E-1,3.8094547E-1,-1.3360922E-1,3.23347E-2,-1.6565752E-1,-1.7097819E-1,1.7528155E-1,4.3274516E-1,1.7264428E-2],"categories":[],"categories_nodes":[],"categories_segments":[],"categories_sizes":[],"default_left":[0,0,0,0,0,0,0,0,0,0,0,0,0,0,0,0,0,0,0,0,0,0,0,0,0,0,0,0,0,0,0,0,0,0,0,0,0,0,0,0,0,0,0,0,0,0,0,0,0,0,0,0,0,0,0,0,0,0,0,0,0,0,0,0,0,0,0,0,0,0,0,0,0,0,0,0,0,0,0,0,0,0,0,0,0,0,0,0,0,0,0,0,0,0,0,0,0,0,0,0,0,0,0,0,0,0,0,0,0],"id":13,"left_children":[1,3,5,7,9,11,13,15,17,19,21,23,25,27,29,31,33,35,-1,37,39,41,43,45,47,49,51,53,55,57,59,-1,61,-1,63,65,67,69,71,73,75,77,79,81,-1,83,85,87,89,91,93,95,97,99,101,103,105,107,-1,-1,-1,-1,-1,-1,-1,-1,-1,-1,-1,-1,-1,-1,-1,-1,-1,-1,-1,-1,-1,-1,-1,-1,-1,-1,-1,-1,-1,-1,-1,-1,-1,-1,-1,-1,-1,-1,-1,-1,-1,-1,-1,-1,-1,-1,-1,-1,-1,-1,-1],"loss_changes":[1.1231706E2,1.4142148E2,8.427168E1,8.714256E1,8.1700165E1,6.500975E1,6.545108E1,1.968061E1,4.8970673E1,7.499191E1,3.108388E1,4.6724808E1,2.1988813E1,6.503539E1,1.792926E1,7.565605E0,8.281437E0,4.222909E1,0E0,3.8768494E1,4.610741E1,2.1517776E1,1.4624191E1,1.992139E1,1.9258087E1,1.7338448E1,1.7186731E1,4.6411175E1,4.786087E1,5.6494293E0,3.9889603E0,0E0,2.3450317E0,0E0,6.740774E0,2.4041918E1,4.16156E0,2.177533E1,6.271407E1,2.5085901E1,8.682518E-1,5.500313E0,1.9813667E1,1.3099655E1,0E0,1.2501121E1,1.06810875E1,9.585264E0,9.53653E0,2.2806261E1,1.2985274E1,8.045435E-1,1.9854546E1,2.6566212E1,5.7427692E0,4.3747936E1,1.0185936E1,1.8373566E0,0E0,0E0,0E0,0E0,0E0,0E0,0E0,0E0,0E0,0E0,0E0,0E0,0E0,0E0,0E0,0E0,0E0,0E0,0E0,0E0,0E0,0E0,0E0,0E0,0E0,0E0,0E0,0E0,0E0,0E0,0E0,0E0,0E0,0E0,0E0,0E0,0E0,0E0,0E0,0E0,0E0,0E0,0E0,0E0,0E0,0E0,0E0,0E0,0E0,0E0,0E0],"parents":[2147483647,0,0,1,1,2,2,3,3,4,4,5,5,6,6,7,7,8,8,9,9,10,10,11,11,12,12,13,13,14,14,15,15,16,16,17,17,19,19,20,20,21,21,22,22,23,23,24,24,25,25,26,26,27,27,28,28,29,29,30,30,32,32,34,34,35,35,36,36,37,37,38,38,39,39,40,40,41,41,42,42,43,43,45,45,46,46,47,47,48,48,49,49,50,50,51,51,52,52,53,53,54,54,55,55,56,56,57,57],"right_children":[2,4,6,8,10,12,14,16,18,20,22,24,26,28,30,32,34,36,-1,38,40,42,44,46,48,50,52,54,56,58,60,-1,62,-1,64,66,68,70,72,74,76,78,80,82,-1,84,86,88,90,92,94,96,98,100,102,104,106,108,-1,-1,-1,-1,-1,-1,-1,-1,-1,-1,-1,-1,-1,-1,-1,-1,-1,-1,-1,-1,-1,-1,-1,-1,-1,-1,-1,-1,-1,-1,-1,-1,-1,-1,-1,-1,-1,-1,-1,-1,-1,-1,-1,-1,-1,-1,-1,-1,-1,-1,-1],"split_conditions":[1.7838573E-1,6.85792E-2,9.732752E-2,7.835442E-2,2.1206929E-1,1.708513E-1,2.6897886E-1,1.6966157E-1,2.5039798E-1,2.5637454E-1,2.5723538E-1,7.403308E-2,2.875328E-1,3.650983E-2,9.081764E-2,2.4198493E-2,6.649521E-2,1.8430312E-1,-1.7350842E-1,2.639987E-1,2.2090015E-1,7.13274E-2,2.90196E-1,2.3040937E-1,4.377717E-2,2.2500398E-2,1.4747989E-1,3.032682E-1,2.1690387E-1,2.450586E-1,3.137632E-1,2.9965708E-1,3.1227204E-1,-1.6783856E-1,1.3931176E-1,2.2156239E-1,2.7940792E-1,2.4718153E-1,1.8835904E-1,7.9926185E-2,1.5895395E-1,6.0308058E-2,3.0450365E-1,1.6483665E-1,-1.6728245E-1,8.354769E-2,2.9055423E-1,2.7119303E-1,8.2951695E-2,2.8955236E-1,1.7423937E-1,1.9088742E-1,2.9922011E-1,2.2386874E-1,3.3999786E-1,2.8924206E-1,3.1711736E-1,1.344899E-1,-1.4172384E-1,-1.8028177E-1,2.2543712E-1,-1.7240876E-1,1.5024407E-1,2.6015487E-1,-1.4994848E-1,3.97249E-2,-1.6202223E-1,-1.6607368E-1,2.3353678E-1,-1.581586E-1,4.967541E-2,-1.1975307E-1,8.749068E-2,-8.923176E-2,9.1045275E-2,5.9631802E-2,-1.7313838E-1,2.608978E-1,-1.7384599E-1,6.5237395E-2,-1.6680072E-1,-1.09540775E-1,4.179244E-1,-1.6043535E-1,6.132506E-2,3.6609676E-1,-1.13783315E-1,1.9267438E-1,-1.4902008E-1,-4.631471E-3,-1.6804686E-1,-9.124756E-2,2.2037712E-1,1.676403E-1,-3.0216977E-2,-1.8266848E-1,5.4385755E-2,7.453203E-2,4.1137928E-1,1.810243E-2,-1.3672826E-1,3.8094547E-1,-1.3360922E-1,3.23347E-2,-1.6565752E-1,-1.7097819E-1,1.7528155E-1,4.3274516E-1,1.7264428E-2],"split_indices":[603,396,614,625,571,591,1345,355,629,1042,1218,369,164,1001,831,129,1621,16,0,999,613,905,1714,629,694,1281,1356,401,1010,997,87,0,1356,0,713,433,1287,867,379,1430,299,1418,1553,430,0,1038,475,1356,658,373,1586,783,1637,865,140,1195,1485,573,0,0,0,0,0,0,0,0,0,0,0,0,0,0,0,0,0,0,0,0,0,0,0,0,0,0,0,0,0,0,0,0,0,0,0,0,0,0,0,0,0,0,0,0,0,0,0,0,0,0,0],"split_type":[0,0,0,0,0,0,0,0,0,0,0,0,0,0,0,0,0,0,0,0,0,0,0,0,0,0,0,0,0,0,0,0,0,0,0,0,0,0,0,0,0,0,0,0,0,0,0,0,0,0,0,0,0,0,0,0,0,0,0,0,0,0,0,0,0,0,0,0,0,0,0,0,0,0,0,0,0,0,0,0,0,0,0,0,0,0,0,0,0,0,0,0,0,0,0,0,0,0,0,0,0,0,0,0,0,0,0,0,0],"sum_hessian":[1.3506357E4,6.385457E3,7.120901E3,2.540061E3,3.845396E3,1.3280083E3,5.7928926E3,3.5981287E2,2.1802483E3,3.4528235E3,3.925725E2,8.9889374E2,4.2911453E2,5.5828696E3,2.1002298E2,3.3118112E2,2.8631763E1,2.0617136E3,1.1853462E2,2.969098E3,4.8372574E2,3.5308932E2,3.948318E1,1.24952835E2,7.739409E2,3.5361316E2,7.550138E1,5.747535E2,5.008116E3,8.636117E0,2.0138686E2,2.234747E0,3.2894635E2,7.405196E0,2.1226566E1,1.9541865E3,1.0752704E2,2.1840972E3,7.850006E2,3.684941E2,1.1523162E2,6.3010757E1,2.9007858E2,3.4322586E1,5.160593E0,9.9434616E1,2.5518217E1,3.107806E1,7.4286285E2,2.3428267E2,1.1933049E2,1.1704698E1,6.3796684E1,5.530238E2,2.1729681E1,4.871504E3,1.366123E2,6.603092E0,2.0330248E0,1.999896E2,1.3972734E0,3.2762384E2,1.3225384E0,1.744208E1,3.7844875E0,1.9004658E3,5.3720722E1,1.05966484E2,1.5605485E0,2.138172E3,4.592504E1,6.1902515E2,1.6597546E2,9.175651E1,2.767376E2,1.0092744E0,1.1422235E2,1.8747592E0,6.1136E1,2.5296155E2,3.7117023E1,4.490122E0,2.9832464E1,3.387014E1,6.5564476E1,2.085705E1,4.6611676E0,2.0778214E1,1.0299847E1,3.372391E1,7.091389E2,2.117686E2,2.2514055E1,6.5889694E1,5.3440796E1,1.0703093E1,1.0016052E0,3.603994E1,2.7756748E1,1.3014378E2,4.2288E2,2.0066883E1,1.6627986E0,4.7698833E3,1.0162045E2,1.2927538E2,7.33693E0,5.3752294E0,1.2278632E0],"tree_param":{"num_deleted":"0","num_feature":"1764","num_nodes":"109","size_leaf_vector":"1"}},{"base_weights":[-1.1640555E-1,-6.9902755E-2,-2.888938E-1,-1.5654965E-1,7.5899854E-2,-4.109967E-1,9.761799E-2,-1.14833534E-1,-5.7050544E-1,-4.5140803E-1,1.07904635E-1,9.0620294E-2,-4.683612E-1,1.5559119E-1,-5.112441E-1,-1.8742849E-1,1.5986001E-1,-5.7923186E-1,7.380373E-1,-5.198657E-1,1.0020852E0,9.542947E-2,9.351059E-1,-1.5816996E-2,9.9157494E-1,-4.96812E-1,2.7219146E-1,2.5439922E-2,3.1704423E-1,1.7241706E-1,-5.6790406E-1,-3.5145757E-1,-5.077726E-2,1.1244572E-1,1.2384106E0,-1.7469884E-1,1.7587808E-1,3.228616E-1,-1.137992E-2,-5.690347E-1,3.8866106E-1,-1.16059355E-1,3.7689808E-1,1.2113165E-1,-2.0942202E-1,-3.7945592E-1,1.1566957E0,1.5627885E-1,-4.39758E-1,-4.478659E-2,1.386202E0,-5.288988E-1,1.9120105E-1,-6.944258E-2,9.2125404E-1,6.30643E-1,-4.7180537E-2,5.42324E-1,5.2038427E-3,2.806424E-1,-1.3858782E-1,-1.7526059E-1,4.8949536E-2,-1.2260013E-1,1.8927771E-1,2.4758538E-2,-1.06327154E-1,7.501285E-2,-1.0694511E-1,1.4445352E-2,4.6774694E-1,1.7573497E-1,-1.73455E-1,-1.2111693E-1,3.6256626E-1,4.1734334E-2,-9.726183E-2,-1.1866873E-1,9.932942E-2,1.6230756E-1,-1.7756039E-1,-1.0416023E-1,3.8983253E-1,1.7408552E-2,4.3159744E-1,-1.6033334E-1,3.6908302E-1,-1.5967382E-1,2.7072963E-1,4.4344667E-1,1.9953713E-2,-1.6168958E-1,9.320524E-2,-9.78216E-2,2.1076815E-1,-1.1577582E-1,1.8422912E-1,-6.0619593E-2,3.5422462E-1,2.3489968E-1,-1.2787336E-1,3.390914E-1,-2.5310835E-2,3.0298656E-1,1.0408631E-1,1.1625395E-1,-7.56087E-2],"categories":[],"categories_nodes":[],"categories_segments":[],"categories_sizes":[],"default_left":[0,0,0,0,0,0,0,0,0,0,0,0,0,0,0,0,0,0,0,0,0,0,0,0,0,0,0,0,0,0,0,0,0,0,0,0,0,0,0,0,0,0,0,0,0,0,0,0,0,0,0,0,0,0,0,0,0,0,0,0,0,0,0,0,0,0,0,0,0,0,0,0,0,0,0,0,0,0,0,0,0,0,0,0,0,0,0,0,0,0,0,0,0,0,0,0,0,0,0,0,0,0,0,0,0,0,0],"id":14,"left_children":[1,3,5,7,9,11,13,15,17,19,21,23,25,27,29,31,33,35,37,39,41,43,45,47,49,51,53,55,57,59,61,63,65,67,69,-1,-1,-1,-1,71,73,-1,-1,75,77,79,81,83,85,87,89,91,93,95,97,99,101,103,105,-1,-1,-1,-1,-1,-1,-1,-1,-1,-1,-1,-1,-1,-1,-1,-1,-1,-1,-1,-1,-1,-1,-1,-1,-1,-1,-1,-1,-1,-1,-1,-1,-1,-1,-1,-1,-1,-1,-1,-1,-1,-1,-1,-1,-1,-1,-1,-1],"loss_changes":[1.086107E2,1.3479019E2,1.3574892E2,1.15497116E2,6.7172844E1,6.29274E1,2.4475101E1,1.212866E2,7.420395E0,2.3186314E1,3.861513E1,2.160273E1,4.1458252E1,1.3268531E1,2.4344559E0,1.0779852E2,6.488881E1,2.5396423E0,1.2207742E0,9.9684105E0,4.224765E0,2.8984863E1,1.6637638E1,1.4829013E1,9.795748E0,4.180478E1,1.6297215E1,1.5452163E1,1.9801811E1,3.038167E0,7.617893E-1,1.23107635E2,1.0629095E2,7.875304E1,2.032949E1,0E0,0E0,0E0,0E0,2.529892E0,8.151896E0,0E0,0E0,2.7347847E1,2.9082176E1,2.0358498E0,1.0720161E1,1.8139648E1,9.935947E0,3.9581194E0,1.997158E0,1.5424103E1,2.2688782E1,1.0813652E1,7.6178627E0,6.398677E0,1.3855832E1,1.4601891E1,1.182494E1,0E0,0E0,0E0,0E0,0E0,0E0,0E0,0E0,0E0,0E0,0E0,0E0,0E0,0E0,0E0,0E0,0E0,0E0,0E0,0E0,0E0,0E0,0E0,0E0,0E0,0E0,0E0,0E0,0E0,0E0,0E0,0E0,0E0,0E0,0E0,0E0,0E0,0E0,0E0,0E0,0E0,0E0,0E0,0E0,0E0,0E0,0E0,0E0],"parents":[2147483647,0,0,1,1,2,2,3,3,4,4,5,5,6,6,7,7,8,8,9,9,10,10,11,11,12,12,13,13,14,14,15,15,16,16,17,17,18,18,19,19,20,20,21,21,22,22,23,23,24,24,25,25,26,26,27,27,28,28,29,29,30,30,31,31,32,32,33,33,34,34,39,39,40,40,43,43,44,44,45,45,46,46,47,47,48,48,49,49,50,50,51,51,52,52,53,53,54,54,55,55,56,56,57,57,58,58],"right_children":[2,4,6,8,10,12,14,16,18,20,22,24,26,28,30,32,34,36,38,40,42,44,46,48,50,52,54,56,58,60,62,64,66,68,70,-1,-1,-1,-1,72,74,-1,-1,76,78,80,82,84,86,88,90,92,94,96,98,100,102,104,106,-1,-1,-1,-1,-1,-1,-1,-1,-1,-1,-1,-1,-1,-1,-1,-1,-1,-1,-1,-1,-1,-1,-1,-1,-1,-1,-1,-1,-1,-1,-1,-1,-1,-1,-1,-1,-1,-1,-1,-1,-1,-1,-1,-1,-1,-1,-1,-1],"split_conditions":[1.8482554E-1,1.7736553E-1,3.5024908E-1,2.377669E-1,6.3051365E-2,5.1372018E-2,1.2623823E-1,2.577614E-1,3.1165782E-1,2.766525E-1,2.3232299E-1,